{"learner":{"attributes":{"scikit_learn":"{\"_estimator_type\": \"regressor\"}"},"feature_names":[],"feature_types":[],"gradient_booster":{"model":{"gbtree_model_param":{"num_parallel_tree":"1","num_trees":"200"},"iteration_indptr":[0,1,2,3,4,5,6,7,8,9,10,11,12,13,14,15,16,17,18,19,20,21,22,23,24,25,26,27,28,29,30,31,32,33,34,35,36,37,38,39,40,41,42,43,44,45,46,47,48,49,50,51,52,53,54,55,56,57,58,59,60,61,62,63,64,65,66,67,68,69,70,71,72,73,74,75,76,77,78,79,80,81,82,83,84,85,86,87,88,89,90,91,92,93,94,95,96,97,98,99,100,101,102,103,104,105,106,107,108,109,110,111,112,113,114,115,116,117,118,119,120,121,122,123,124,125,126,127,128,129,130,131,132,133,134,135,136,137,138,139,140,141,142,143,144,145,146,147,148,149,150,151,152,153,154,155,156,157,158,159,160,161,162,163,164,165,166,167,168,169,170,171,172,173,174,175,176,177,178,179,180,181,182,183,184,185,186,187,188,189,190,191,192,193,194,195,196,197,198,199,200],"tree_info":[0,0,0,0,0,0,0,0,0,0,0,0,0,0,0,0,0,0,0,0,0,0,0,0,0,0,0,0,0,0,0,0,0,0,0,0,0,0,0,0,0,0,0,0,0,0,0,0,0,0,0,0,0,0,0,0,0,0,0,0,0,0,0,0,0,0,0,0,0,0,0,0,0,0,0,0,0,0,0,0,0,0,0,0,0,0,0,0,0,0,0,0,0,0,0,0,0,0,0,0,0,0,0,0,0,0,0,0,0,0,0,0,0,0,0,0,0,0,0,0,0,0,0,0,0,0,0,0,0,0,0,0,0,0,0,0,0,0,0,0,0,0,0,0,0,0,0,0,0,0,0,0,0,0,0,0,0,0,0,0,0,0,0,0,0,0,0,0,0,0,0,0,0,0,0,0,0,0,0,0,0,0,0,0,0,0,0,0,0,0,0,0,0,0,0,0,0,0,0,0],"trees":[{"base_weights":[1.328058E-9,-9.0244755E-2,4.096327E-1,-6.6046896E-3,-2.2153003E-2,2.6728413E-1,5.2709717E-1,-3.26557E-2,8.7241486E-2,2.3266359E-1,3.7065673E-1,4.9841517E-1,3.2897856E-2,-4.1925807E-2,2.3911973E-2,1.2703781E-1,-1.1666027E-2,2.8399834E-1,1.9061857E-1,8.2223795E-2,3.869708E-1,3.3186473E-2,5.02729E-1,6.731173E-2,-4.602288E-2,-6.500373E-3,8.06933E-2,1.472401E-2,1.4497903E-1,7.013405E-2,-6.7399465E-2,2.1035029E-1,3.439993E-1,1.1024083E-1,2.3888607E-1,4.788388E-3,1.0397974E-3,3.9252412E-1,3.1491176E-3,-4.8102383E-4,2.9700093E-3,4.005717E-1,2.5917891E-2,1.0100066E-1,-8.480112E-3,-5.0588112E-2,-5.3716186E-3,-1.2557068E-2,4.6773003E-3,4.257612E-2,1.030144E-1,-3.0297128E-2,6.731943E-2,8.056865E-2,1.9748507E-1,1.3102956E-2,6.9073588E-3,2.1437826E-2,-8.550059E-2,2.4211925E-1,7.6836206E-2,3.278651E-3,3.499119E-1,1.4319064E-1,-4.6721336E-2,2.7206263E-1,1.1992343E-1,1.984266E-2,4.834655E-3,4.271044E-1,5.403328E-3,1.059635E-3,8.035939E-3,1.3462056E-3,-1.7553734E-3,-2.95567E-3,-9.893602E-4,-1.5112836E-3,4.5317044E-3,1.803313E-3,-1.1026711E-3,2.2250738E-3,3.9053E-4,7.0301344E-4,5.56034E-3,-1.777795E-3,-2.3155138E-4,8.7028445E-4,3.9077727E-3,5.0581726E-3,-2.7836964E-4,4.306079E-3,1.1181743E-2,-2.770902E-4,2.658169E-3,-1.3813628E-3,2.9891997E-3,-4.4697574E-3,-1.1638742E-3,5.1303506E-3,1.4290909E-2,6.4912844E-3,-4.3048468E-4,1.8158713E-2,7.6509775E-3,9.719727E-3,1.0577688E-4,2.6021977E-3,-3.5928104E-3,2.4752277E-3,1.4375843E-2,-1.1648304E-3,7.286741E-3,2.1951113E-2,2.3351347E-3],"categories":[],"categories_nodes":[],"categories_segments":[],"categories_sizes":[],"default_left":[0,0,0,0,0,0,0,0,0,0,0,0,0,0,0,0,0,0,0,0,0,0,0,0,0,0,0,0,0,0,0,0,0,0,0,0,0,0,0,0,0,0,0,0,0,0,0,0,0,0,0,0,0,0,0,0,0,0,0,0,0,0,0,0,0,0,0,0,0,0,0,0,0,0,0,0,0,0,0,0,0,0,0,0,0,0,0,0,0,0,0,0,0,0,0,0,0,0,0,0,0,0,0,0,0,0,0,0,0,0,0,0,0,0,0],"id":0,"left_children":[1,3,5,-1,7,9,11,13,15,17,19,21,-1,23,25,27,29,31,33,35,37,39,41,43,45,47,49,51,53,55,57,59,61,63,65,-1,-1,67,-1,-1,-1,69,-1,71,73,75,77,79,-1,81,83,85,87,89,91,93,-1,95,97,99,101,-1,103,105,107,109,111,-1,-1,113,-1,-1,-1,-1,-1,-1,-1,-1,-1,-1,-1,-1,-1,-1,-1,-1,-1,-1,-1,-1,-1,-1,-1,-1,-1,-1,-1,-1,-1,-1,-1,-1,-1,-1,-1,-1,-1,-1,-1,-1,-1,-1,-1,-1,-1],"loss_changes":[9.419244E1,5.9469814E0,7.550728E0,0E0,9.17403E-1,6.653137E-1,6.14151E-1,3.822328E-1,2.7701294E-1,2.912035E-1,2.0816231E-1,4.0476608E-1,0E0,2.828195E-1,1.7839043E-1,9.861761E-2,1.00465976E-1,2.3696613E-1,3.2671142E-1,1.3363268E-3,6.164074E-2,3.9378456E-3,1.2445068E-1,5.958347E-2,1.1163449E-1,4.2379286E-2,2.6243463E-2,2.098283E-2,1.2951213E-1,3.309963E-2,2.2737656E-2,1.2561095E-1,3.7965775E-2,1.9287753E-1,1.8839264E-1,0E0,0E0,2.1818638E-2,0E0,0E0,0E0,2.0219469E-1,0E0,7.284963E-2,8.487005E-3,1.4115214E-1,1.5067959E-1,3.080877E-2,0E0,6.564539E-4,1.4468849E-2,5.102004E-4,8.031167E-4,3.7816256E-2,4.771918E-2,4.776123E-3,0E0,7.2960416E-3,5.847588E-4,1.3527966E-1,3.733963E-2,0E0,3.843212E-2,2.1629655E-1,2.1116849E-2,1.3366342E-1,5.5149034E-2,0E0,0E0,1.1096954E-1,0E0,0E0,0E0,0E0,0E0,0E0,0E0,0E0,0E0,0E0,0E0,0E0,0E0,0E0,0E0,0E0,0E0,0E0,0E0,0E0,0E0,0E0,0E0,0E0,0E0,0E0,0E0,0E0,0E0,0E0,0E0,0E0,0E0,0E0,0E0,0E0,0E0,0E0,0E0,0E0,0E0,0E0,0E0,0E0,0E0],"parents":[2147483647,0,0,1,1,2,2,4,4,5,5,6,6,7,7,8,8,9,9,10,10,11,11,13,13,14,14,15,15,16,16,17,17,18,18,19,19,20,20,21,21,22,22,23,23,24,24,25,25,26,26,27,27,28,28,29,29,30,30,31,31,32,32,33,33,34,34,37,37,41,41,43,43,44,44,45,45,46,46,47,47,49,49,50,50,51,51,52,52,53,53,54,54,55,55,57,57,58,58,59,59,60,60,62,62,63,63,64,64,65,65,66,66,69,69],"right_children":[2,4,6,-1,8,10,12,14,16,18,20,22,-1,24,26,28,30,32,34,36,38,40,42,44,46,48,50,52,54,56,58,60,62,64,66,-1,-1,68,-1,-1,-1,70,-1,72,74,76,78,80,-1,82,84,86,88,90,92,94,-1,96,98,100,102,-1,104,106,108,110,112,-1,-1,114,-1,-1,-1,-1,-1,-1,-1,-1,-1,-1,-1,-1,-1,-1,-1,-1,-1,-1,-1,-1,-1,-1,-1,-1,-1,-1,-1,-1,-1,-1,-1,-1,-1,-1,-1,-1,-1,-1,-1,-1,-1,-1,-1,-1,-1],"split_conditions":[3.2787722E-1,3.1076872E-1,5.598624E-1,-6.6046896E-3,2.513814E-1,4.1492537E-1,7.4412495E-1,4.152312E-1,2.3028105E-1,4.464286E-3,3.3246085E-1,1.8208955E-1,3.2897856E-2,1.7497733E-1,4.119403E-1,7.4404763E-4,5.952381E-3,4.253602E-1,3.731983E-1,2.5101215E-1,9.182787E-1,8.5020244E-1,4.2686567E-1,5.098621E-1,1.7871739E-1,1.4263591E-1,4.3773657E-1,6.212121E-1,2.4477611E-1,4.0192664E-1,7.725E-1,9.622785E-1,8.837938E-2,9.4391394E-1,4.4357917E-1,4.788388E-3,1.0397974E-3,6.358209E-1,3.1491176E-3,-4.8102383E-4,2.9700093E-3,2.0670898E-1,2.5917891E-2,2.0914195E-1,5.877976E-2,4E-1,4.2859954E-1,8.7040186E-1,4.6773003E-3,5.2492046E-1,3.98981E-1,6.233298E-1,2.4696356E-1,2.1492538E-1,3.8366914E-1,3.720238E-3,6.9073588E-3,5.7894737E-1,7.2469634E-1,2.6567164E-1,7.475E-1,3.278651E-3,5.951417E-1,9.975E-1,4.0890688E-1,1.1641791E-1,4.4630778E-1,1.984266E-2,4.834655E-3,6.7463577E-1,5.403328E-3,1.059635E-3,8.035939E-3,1.3462056E-3,-1.7553734E-3,-2.95567E-3,-9.893602E-4,-1.5112836E-3,4.5317044E-3,1.803313E-3,-1.1026711E-3,2.2250738E-3,3.9053E-4,7.0301344E-4,5.56034E-3,-1.777795E-3,-2.3155138E-4,8.7028445E-4,3.9077727E-3,5.0581726E-3,-2.7836964E-4,4.306079E-3,1.1181743E-2,-2.770902E-4,2.658169E-3,-1.3813628E-3,2.9891997E-3,-4.4697574E-3,-1.1638742E-3,5.1303506E-3,1.4290909E-2,6.4912844E-3,-4.3048468E-4,1.8158713E-2,7.6509775E-3,9.719727E-3,1.0577688E-4,2.6021977E-3,-3.5928104E-3,2.4752277E-3,1.4375843E-2,-1.1648304E-3,7.286741E-3,2.1951113E-2,2.3351347E-3],"split_indices":[11,10,11,0,11,8,11,1,1,7,12,8,0,1,8,7,7,11,12,0,9,0,8,4,11,11,10,5,8,12,2,6,3,6,12,0,0,8,0,0,0,1,0,12,7,8,12,6,0,4,3,4,0,8,4,7,0,0,0,8,2,0,0,2,0,8,12,0,0,11,0,0,0,0,0,0,0,0,0,0,0,0,0,0,0,0,0,0,0,0,0,0,0,0,0,0,0,0,0,0,0,0,0,0,0,0,0,0,0,0,0,0,0,0,0],"split_type":[0,0,0,0,0,0,0,0,0,0,0,0,0,0,0,0,0,0,0,0,0,0,0,0,0,0,0,0,0,0,0,0,0,0,0,0,0,0,0,0,0,0,0,0,0,0,0,0,0,0,0,0,0,0,0,0,0,0,0,0,0,0,0,0,0,0,0,0,0,0,0,0,0,0,0,0,0,0,0,0,0,0,0,0,0,0,0,0,0,0,0,0,0,0,0,0,0,0,0,0,0,0,0,0,0,0,0,0,0,0,0,0,0,0,0],"sum_hessian":[2.546E3,2.087E3,4.59E2,1.292E3,7.95E2,2.09E2,2.5E2,7.26E2,6.9E1,1.59E2,5E1,2.09E2,4.1E1,6.24E2,1.02E2,4.9E1,2E1,6.9E1,9E1,3E0,4.7E1,2E0,2.07E2,2.2E1,6.02E2,6.7E1,3.5E1,7E0,4.2E1,8E0,1.2E1,3.3E1,3.6E1,3.5E1,5.5E1,2E0,1E0,4.6E1,1E0,1E0,1E0,3.1E1,1.76E2,1.5E1,7E0,5.41E2,6.1E1,6.4E1,3E0,1.4E1,2.1E1,4E0,3E0,2E1,2.2E1,5E0,3E0,2E0,1E1,2.6E1,7E0,1E0,3.5E1,2.9E1,6E0,4.2E1,1.3E1,4.5E1,1E0,2.8E1,3E0,7E0,8E0,3E0,4E0,4.23E2,1.18E2,4.9E1,1.2E1,1E1,5.4E1,1.3E1,1E0,2E0,1.9E1,3E0,1E0,1E0,2E0,1.6E1,4E0,5E0,1.7E1,4E0,1E0,1E0,1E0,9E0,1E0,7E0,1.9E1,4E0,3E0,3.2E1,3E0,2.1E1,8E0,1E0,5E0,3E0,3.9E1,2E0,1.1E1,2.7E1,1E0],"tree_param":{"num_deleted":"0","num_feature":"13","num_nodes":"115","size_leaf_vector":"1"}},{"base_weights":[1.0001674E-4,-8.571158E-2,3.8960984E-1,-6.27471E-3,-2.0982137E-2,2.544915E-1,5.0110483E-1,-3.0992625E-2,8.3283685E-2,2.2157027E-1,3.527838E-1,4.7377107E-1,3.129213E-2,-3.981709E-2,2.2854792E-2,1.2114665E-1,-1.0832126E-2,2.70578E-1,1.8143718E-1,7.956965E-2,3.6820197E-1,3.235681E-2,4.7785985E-1,6.4323805E-2,-4.3723267E-2,-6.0962667E-3,7.690527E-2,1.4333899E-2,1.3820143E-1,6.765939E-2,-6.433917E-2,1.4408432E-1,2.9962847E-1,1.049742E-1,2.2735201E-1,4.628775E-3,1.0138024E-3,3.7342298E-1,3.0703896E-3,-4.6899822E-4,2.8957592E-3,3.8147092E-1,2.4629317E-2,9.65191E-2,-8.1072515E-3,-4.802563E-2,-2.4678505E-3,-1.1918435E-2,4.5019016E-3,4.062169E-2,9.814838E-2,-2.918414E-2,6.514797E-2,7.676783E-2,1.882842E-1,1.2844652E-2,6.648333E-3,2.0901881E-2,-8.173771E-2,2.4897543E-1,6.674122E-2,1.2923704E-1,3.1749073E-1,1.3635862E-1,-4.4526793E-2,2.5885138E-1,1.14364535E-1,1.8872095E-2,4.7137886E-3,4.0658665E-1,5.2007036E-3,1.0132758E-3,7.678786E-3,1.295723E-3,-1.6851586E-3,-2.4879065E-3,3.0437738E-3,8.2743745E-3,-8.986785E-4,1.7213443E-3,-1.0485401E-3,2.1217668E-3,3.8076678E-4,6.795799E-4,5.2962243E-3,-1.7111276E-3,-2.2576265E-4,8.4852724E-4,3.7775133E-3,4.8201415E-3,-2.672349E-4,4.1266587E-3,1.06537165E-2,-2.6600674E-4,2.5917147E-3,-1.3468286E-3,2.9144697E-3,-4.2686188E-3,-1.1347774E-3,1.3542891E-2,3.489088E-3,5.464987E-3,-1.2210746E-3,-1.2937321E-3,7.970071E-3,1.6978366E-2,9.7613735E-3,9.25583E-3,1.01075406E-4,2.5371425E-3,-3.4431105E-3,2.3824065E-3,1.3675021E-2,7.995005E-3,1.3500215E-3,2.0892754E-2,2.2767563E-3],"categories":[],"categories_nodes":[],"categories_segments":[],"categories_sizes":[],"default_left":[0,0,0,0,0,0,0,0,0,0,0,0,0,0,0,0,0,0,0,0,0,0,0,0,0,0,0,0,0,0,0,0,0,0,0,0,0,0,0,0,0,0,0,0,0,0,0,0,0,0,0,0,0,0,0,0,0,0,0,0,0,0,0,0,0,0,0,0,0,0,0,0,0,0,0,0,0,0,0,0,0,0,0,0,0,0,0,0,0,0,0,0,0,0,0,0,0,0,0,0,0,0,0,0,0,0,0,0,0,0,0,0,0,0,0,0,0],"id":1,"left_children":[1,3,5,-1,7,9,11,13,15,17,19,21,-1,23,25,27,29,31,33,35,37,39,41,43,45,47,49,51,53,55,57,59,61,63,65,-1,-1,67,-1,-1,-1,69,-1,71,73,75,77,79,-1,81,83,85,87,89,91,93,-1,95,97,99,101,103,105,107,109,111,113,-1,-1,115,-1,-1,-1,-1,-1,-1,-1,-1,-1,-1,-1,-1,-1,-1,-1,-1,-1,-1,-1,-1,-1,-1,-1,-1,-1,-1,-1,-1,-1,-1,-1,-1,-1,-1,-1,-1,-1,-1,-1,-1,-1,-1,-1,-1,-1,-1,-1],"loss_changes":[8.51655E1,5.3741903E0,6.8023834E0,0E0,8.334077E-1,6.013727E-1,5.5929565E-1,3.46362E-1,2.5075752E-1,2.656002E-1,1.8553829E-1,3.635559E-1,0E0,2.570578E-1,1.6164514E-1,8.910245E-2,9.254999E-2,2.1405745E-1,2.9561543E-1,1.2075901E-3,5.395317E-2,3.743414E-3,1.0734177E-1,5.441711E-2,1.0691142E-1,3.9133396E-2,2.376099E-2,1.9591918E-2,1.1784673E-1,3.0510295E-2,2.0988382E-2,1.0507214E-1,1.2940884E-1,1.7498368E-1,1.6970253E-1,0E0,0E0,1.7145157E-2,0E0,0E0,0E0,1.8070221E-1,0E0,6.650005E-2,7.839936E-3,1.0604346E-1,1.5402196E-1,2.799172E-2,0E0,5.747676E-4,1.3025776E-2,4.6693627E-4,7.22494E-4,3.4373097E-2,4.2710662E-2,4.5251963E-3,0E0,6.9357986E-3,4.2301416E-4,4.626155E-3,4.1466765E-2,3.6876403E-2,6.866503E-2,1.9612598E-1,1.9723248E-2,1.2000704E-1,5.1377058E-2,0E0,0E0,9.8959446E-2,0E0,0E0,0E0,0E0,0E0,0E0,0E0,0E0,0E0,0E0,0E0,0E0,0E0,0E0,0E0,0E0,0E0,0E0,0E0,0E0,0E0,0E0,0E0,0E0,0E0,0E0,0E0,0E0,0E0,0E0,0E0,0E0,0E0,0E0,0E0,0E0,0E0,0E0,0E0,0E0,0E0,0E0,0E0,0E0,0E0,0E0,0E0],"parents":[2147483647,0,0,1,1,2,2,4,4,5,5,6,6,7,7,8,8,9,9,10,10,11,11,13,13,14,14,15,15,16,16,17,17,18,18,19,19,20,20,21,21,22,22,23,23,24,24,25,25,26,26,27,27,28,28,29,29,30,30,31,31,32,32,33,33,34,34,37,37,41,41,43,43,44,44,45,45,46,46,47,47,49,49,50,50,51,51,52,52,53,53,54,54,55,55,57,57,58,58,59,59,60,60,61,61,62,62,63,63,64,64,65,65,66,66,69,69],"right_children":[2,4,6,-1,8,10,12,14,16,18,20,22,-1,24,26,28,30,32,34,36,38,40,42,44,46,48,50,52,54,56,58,60,62,64,66,-1,-1,68,-1,-1,-1,70,-1,72,74,76,78,80,-1,82,84,86,88,90,92,94,-1,96,98,100,102,104,106,108,110,112,114,-1,-1,116,-1,-1,-1,-1,-1,-1,-1,-1,-1,-1,-1,-1,-1,-1,-1,-1,-1,-1,-1,-1,-1,-1,-1,-1,-1,-1,-1,-1,-1,-1,-1,-1,-1,-1,-1,-1,-1,-1,-1,-1,-1,-1,-1,-1,-1,-1,-1],"split_conditions":[3.2787722E-1,3.1076872E-1,5.598624E-1,-6.27471E-3,2.513814E-1,4.1492537E-1,7.4412495E-1,4.152312E-1,2.3028105E-1,4.464286E-3,3.3246085E-1,1.8208955E-1,3.129213E-2,1.7497733E-1,4.119403E-1,7.4404763E-4,5.952381E-3,3.7468353E-1,3.731983E-1,2.5101215E-1,9.182787E-1,8.5020244E-1,4.2686567E-1,5.098621E-1,6.666667E-1,1.4263591E-1,4.3773657E-1,6.212121E-1,2.4477611E-1,4.0192664E-1,7.725E-1,9.317216E-1,2.5373134E-1,9.4391394E-1,4.4357917E-1,4.628775E-3,1.0138024E-3,6.358209E-1,3.0703896E-3,-4.6899822E-4,2.8957592E-3,2.0670898E-1,2.4629317E-2,2.0914195E-1,5.877976E-2,4.8679405E-1,9.381258E-1,8.7040186E-1,4.5019016E-3,5.2492046E-1,3.98981E-1,6.233298E-1,2.4696356E-1,2.1492538E-1,3.8366914E-1,3.720238E-3,6.648333E-3,5.7894737E-1,7.2469634E-1,6.372722E-1,7.475E-1,4.0682822E-1,6.8939394E-1,9.975E-1,4.0890688E-1,1.1641791E-1,2.0089285E-2,1.8872095E-2,4.7137886E-3,6.7463577E-1,5.2007036E-3,1.0132758E-3,7.678786E-3,1.295723E-3,-1.6851586E-3,-2.4879065E-3,3.0437738E-3,8.2743745E-3,-8.986785E-4,1.7213443E-3,-1.0485401E-3,2.1217668E-3,3.8076678E-4,6.795799E-4,5.2962243E-3,-1.7111276E-3,-2.2576265E-4,8.4852724E-4,3.7775133E-3,4.8201415E-3,-2.672349E-4,4.1266587E-3,1.06537165E-2,-2.6600674E-4,2.5917147E-3,-1.3468286E-3,2.9144697E-3,-4.2686188E-3,-1.1347774E-3,1.3542891E-2,3.489088E-3,5.464987E-3,-1.2210746E-3,-1.2937321E-3,7.970071E-3,1.6978366E-2,9.7613735E-3,9.25583E-3,1.01075406E-4,2.5371425E-3,-3.4431105E-3,2.3824065E-3,1.3675021E-2,7.995005E-3,1.3500215E-3,2.0892754E-2,2.2767563E-3],"split_indices":[11,10,11,0,11,8,11,1,1,7,12,8,0,1,8,7,7,11,12,0,9,0,8,4,5,11,10,5,8,12,2,6,8,6,12,0,0,8,0,0,0,1,0,12,7,12,6,6,0,4,3,4,0,8,4,7,0,0,0,3,2,11,5,2,0,8,7,0,0,11,0,0,0,0,0,0,0,0,0,0,0,0,0,0,0,0,0,0,0,0,0,0,0,0,0,0,0,0,0,0,0,0,0,0,0,0,0,0,0,0,0,0,0,0,0,0,0],"split_type":[0,0,0,0,0,0,0,0,0,0,0,0,0,0,0,0,0,0,0,0,0,0,0,0,0,0,0,0,0,0,0,0,0,0,0,0,0,0,0,0,0,0,0,0,0,0,0,0,0,0,0,0,0,0,0,0,0,0,0,0,0,0,0,0,0,0,0,0,0,0,0,0,0,0,0,0,0,0,0,0,0,0,0,0,0,0,0,0,0,0,0,0,0,0,0,0,0,0,0,0,0,0,0,0,0,0,0,0,0,0,0,0,0,0,0,0,0],"sum_hessian":[2.546E3,2.087E3,4.59E2,1.292E3,7.95E2,2.09E2,2.5E2,7.26E2,6.9E1,1.59E2,5E1,2.09E2,4.1E1,6.24E2,1.02E2,4.9E1,2E1,6.9E1,9E1,3E0,4.7E1,2E0,2.07E2,2.2E1,6.02E2,6.7E1,3.5E1,7E0,4.2E1,8E0,1.2E1,1.4E1,5.5E1,3.5E1,5.5E1,2E0,1E0,4.6E1,1E0,1E0,1E0,3.1E1,1.76E2,1.5E1,7E0,5.45E2,5.7E1,6.4E1,3E0,1.4E1,2.1E1,4E0,3E0,2E1,2.2E1,5E0,3E0,2E0,1E1,5E0,9E0,6E0,4.9E1,2.9E1,6E0,4.2E1,1.3E1,4.5E1,1E0,2.8E1,3E0,7E0,8E0,3E0,4E0,5.37E2,8E0,4E0,5.3E1,1E1,5.4E1,1.3E1,1E0,2E0,1.9E1,3E0,1E0,1E0,2E0,1.6E1,4E0,5E0,1.7E1,4E0,1E0,1E0,1E0,9E0,1E0,4E0,1E0,6E0,3E0,1E0,5E0,4E1,9E0,2.1E1,8E0,1E0,5E0,3E0,3.9E1,8E0,5E0,2.7E1,1E0],"tree_param":{"num_deleted":"0","num_feature":"13","num_nodes":"117","size_leaf_vector":"1"}},{"base_weights":[1.9644317E-4,-8.140169E-2,3.7058058E-1,-5.9612175E-3,-1.9861357E-2,2.4234238E-1,4.7639507E-1,-2.940188E-2,7.950751E-2,2.1104518E-1,3.357779E-1,4.5034644E-1,2.9764775E-2,-3.7800256E-2,2.1844603E-2,1.1552977E-1,-1.0045842E-2,2.578304E-1,1.7273735E-1,7.700181E-2,3.5034722E-1,3.1547893E-2,4.5422167E-1,6.1468598E-2,-4.1523945E-2,-5.7153576E-3,7.329551E-2,1.3953348E-2,1.3174097E-1,6.527354E-2,-6.141727E-2,1.9045813E-1,3.1277168E-1,9.996024E-2,2.1643803E-1,4.474483E-3,9.884574E-4,3.5525364E-1,2.99363E-3,-4.5727324E-4,2.8233652E-3,3.6634603E-1,2.3434956E-2,9.223639E-2,-7.750566E-3,-4.5803387E-2,-3.4436057E-3,-1.1312165E-2,4.3330803E-3,3.8757443E-2,9.351258E-2,-2.8112309E-2,6.304708E-2,7.314625E-2,1.7951262E-1,1.2590033E-2,6.3990206E-3,2.0379333E-2,-7.814205E-2,2.2782254E-1,9.1621414E-2,2.7722255E-3,3.1837955E-1,1.298526E-1,-4.242988E-2,2.4628223E-1,1.0931381E-1,3.5898006E-1,4.595944E-3,3.9356327E-1,6.4886636E-3,9.6894486E-4,7.3375064E-3,1.2471337E-3,-1.6177522E-3,-2.6954717E-3,-8.268213E-4,-1.6733978E-3,3.5904292E-3,1.6431019E-3,-9.970665E-4,2.0232564E-3,3.7124753E-4,3.0500528E-3,6.023928E-3,-4.8497395E-4,-1.8577185E-3,8.27314E-4,3.6515964E-3,6.224593E-3,1.9290581E-3,7.0451247E-3,1.3271213E-2,-2.5536673E-4,2.526922E-3,-1.313158E-3,2.841608E-3,-4.0765307E-3,-1.1064078E-3,4.6185474E-3,1.3908157E-2,6.551889E-3,-5.05832E-4,1.6523419E-2,6.952585E-3,8.814075E-3,9.658321E-5,2.4737138E-3,-3.2996477E-3,2.293066E-3,1.3008364E-2,-1.2817533E-3,6.6970773E-3,8.927378E-3,1.8370805E-2,2.020363E-2,2.2198372E-3],"categories":[],"categories_nodes":[],"categories_segments":[],"categories_sizes":[],"default_left":[0,0,0,0,0,0,0,0,0,0,0,0,0,0,0,0,0,0,0,0,0,0,0,0,0,0,0,0,0,0,0,0,0,0,0,0,0,0,0,0,0,0,0,0,0,0,0,0,0,0,0,0,0,0,0,0,0,0,0,0,0,0,0,0,0,0,0,0,0,0,0,0,0,0,0,0,0,0,0,0,0,0,0,0,0,0,0,0,0,0,0,0,0,0,0,0,0,0,0,0,0,0,0,0,0,0,0,0,0,0,0,0,0,0,0,0,0],"id":2,"left_children":[1,3,5,-1,7,9,11,13,15,17,19,21,-1,23,25,27,29,31,33,35,37,39,41,43,45,47,49,51,53,55,57,59,61,63,65,-1,-1,67,-1,-1,-1,69,-1,71,73,75,77,79,-1,81,83,85,87,89,91,93,-1,95,97,99,101,-1,103,105,107,109,111,113,-1,115,-1,-1,-1,-1,-1,-1,-1,-1,-1,-1,-1,-1,-1,-1,-1,-1,-1,-1,-1,-1,-1,-1,-1,-1,-1,-1,-1,-1,-1,-1,-1,-1,-1,-1,-1,-1,-1,-1,-1,-1,-1,-1,-1,-1,-1,-1,-1],"loss_changes":[7.700726E1,4.8577013E0,6.126503E0,0E0,7.5697017E-1,5.432329E-1,5.0930405E-1,3.1371725E-1,2.2697452E-1,2.4222183E-1,1.6530228E-1,3.264923E-1,0E0,2.335813E-1,1.4647138E-1,8.0495596E-2,8.526347E-2,1.9953632E-1,2.677822E-1,1.0897163E-3,4.7139168E-2,3.5585833E-3,9.291458E-2,4.969848E-2,9.810865E-2,3.613742E-2,2.1513E-2,1.829368E-2,1.07233524E-1,2.8121278E-2,1.9376874E-2,1.0468769E-1,3.5740852E-2,1.5873921E-1,1.5211177E-1,0E0,0E0,1.3123989E-2,0E0,0E0,0E0,1.6784716E-1,0E0,6.070389E-2,7.242222E-3,1.2769234E-1,1.4248596E-1,2.543243E-2,0E0,5.0213747E-4,1.1938199E-2,4.7207158E-4,6.48804E-4,3.2467037E-2,3.88934E-2,4.287638E-3,0E0,6.593344E-3,2.8375536E-4,1.3795495E-1,4.543723E-2,0E0,3.2090664E-2,1.7783624E-1,1.8423762E-2,1.07731104E-1,4.99624E-2,4.4164658E-3,0E0,9.214544E-2,0E0,0E0,0E0,0E0,0E0,0E0,0E0,0E0,0E0,0E0,0E0,0E0,0E0,0E0,0E0,0E0,0E0,0E0,0E0,0E0,0E0,0E0,0E0,0E0,0E0,0E0,0E0,0E0,0E0,0E0,0E0,0E0,0E0,0E0,0E0,0E0,0E0,0E0,0E0,0E0,0E0,0E0,0E0,0E0,0E0,0E0,0E0],"parents":[2147483647,0,0,1,1,2,2,4,4,5,5,6,6,7,7,8,8,9,9,10,10,11,11,13,13,14,14,15,15,16,16,17,17,18,18,19,19,20,20,21,21,22,22,23,23,24,24,25,25,26,26,27,27,28,28,29,29,30,30,31,31,32,32,33,33,34,34,37,37,41,41,43,43,44,44,45,45,46,46,47,47,49,49,50,50,51,51,52,52,53,53,54,54,55,55,57,57,58,58,59,59,60,60,62,62,63,63,64,64,65,65,66,66,67,67,69,69],"right_children":[2,4,6,-1,8,10,12,14,16,18,20,22,-1,24,26,28,30,32,34,36,38,40,42,44,46,48,50,52,54,56,58,60,62,64,66,-1,-1,68,-1,-1,-1,70,-1,72,74,76,78,80,-1,82,84,86,88,90,92,94,-1,96,98,100,102,-1,104,106,108,110,112,114,-1,116,-1,-1,-1,-1,-1,-1,-1,-1,-1,-1,-1,-1,-1,-1,-1,-1,-1,-1,-1,-1,-1,-1,-1,-1,-1,-1,-1,-1,-1,-1,-1,-1,-1,-1,-1,-1,-1,-1,-1,-1,-1,-1,-1,-1,-1,-1,-1],"split_conditions":[3.2787722E-1,3.1076872E-1,5.598624E-1,-5.9612175E-3,2.513814E-1,4.1492537E-1,7.4412495E-1,4.152312E-1,2.3028105E-1,4.464286E-3,3.3246085E-1,1.8208955E-1,2.9764775E-2,1.7497733E-1,4.119403E-1,7.4404763E-4,5.952381E-3,4.253602E-1,3.731983E-1,2.5101215E-1,9.182787E-1,8.5020244E-1,4.358209E-1,5.098621E-1,1.7871739E-1,1.4263591E-1,4.3773657E-1,6.212121E-1,2.4477611E-1,4.0192664E-1,7.725E-1,9.557928E-1,8.837938E-2,9.4391394E-1,4.4357917E-1,4.474483E-3,9.884574E-4,6.358209E-1,2.99363E-3,-4.5727324E-4,2.8233652E-3,2.0398912E-1,2.3434956E-2,2.0914195E-1,5.877976E-2,4E-1,5.378788E-1,8.7040186E-1,4.3330803E-3,5.2492046E-1,4.6268657E-1,1.3452871E-1,2.4696356E-1,1.7135087E-1,6.4777327E-1,3.720238E-3,6.3990206E-3,5.7894737E-1,7.2469634E-1,2.6567164E-1,7.475E-1,2.7722255E-3,5.951417E-1,9.975E-1,4.0890688E-1,1.1641791E-1,4.4630778E-1,8.3408885E-2,4.595944E-3,6.7463577E-1,6.4886636E-3,9.6894486E-4,7.3375064E-3,1.2471337E-3,-1.6177522E-3,-2.6954717E-3,-8.268213E-4,-1.6733978E-3,3.5904292E-3,1.6431019E-3,-9.970665E-4,2.0232564E-3,3.7124753E-4,3.0500528E-3,6.023928E-3,-4.8497395E-4,-1.8577185E-3,8.27314E-4,3.6515964E-3,6.224593E-3,1.9290581E-3,7.0451247E-3,1.3271213E-2,-2.5536673E-4,2.526922E-3,-1.313158E-3,2.841608E-3,-4.0765307E-3,-1.1064078E-3,4.6185474E-3,1.3908157E-2,6.551889E-3,-5.05832E-4,1.6523419E-2,6.952585E-3,8.814075E-3,9.658321E-5,2.4737138E-3,-3.2996477E-3,2.293066E-3,1.3008364E-2,-1.2817533E-3,6.6970773E-3,8.927378E-3,1.8370805E-2,2.020363E-2,2.2198372E-3],"split_indices":[11,10,11,0,11,8,11,1,1,7,12,8,0,1,8,7,7,11,12,0,9,0,8,4,11,11,10,5,8,12,2,6,3,6,12,0,0,8,0,0,0,1,0,12,7,8,5,6,0,4,8,3,0,1,0,7,0,0,0,8,2,0,0,2,0,8,12,1,0,11,0,0,0,0,0,0,0,0,0,0,0,0,0,0,0,0,0,0,0,0,0,0,0,0,0,0,0,0,0,0,0,0,0,0,0,0,0,0,0,0,0,0,0,0,0,0,0],"split_type":[0,0,0,0,0,0,0,0,0,0,0,0,0,0,0,0,0,0,0,0,0,0,0,0,0,0,0,0,0,0,0,0,0,0,0,0,0,0,0,0,0,0,0,0,0,0,0,0,0,0,0,0,0,0,0,0,0,0,0,0,0,0,0,0,0,0,0,0,0,0,0,0,0,0,0,0,0,0,0,0,0,0,0,0,0,0,0,0,0,0,0,0,0,0,0,0,0,0,0,0,0,0,0,0,0,0,0,0,0,0,0,0,0,0,0,0,0],"sum_hessian":[2.546E3,2.087E3,4.59E2,1.292E3,7.95E2,2.09E2,2.5E2,7.26E2,6.9E1,1.59E2,5E1,2.09E2,4.1E1,6.24E2,1.02E2,4.9E1,2E1,6.9E1,9E1,3E0,4.7E1,2E0,2.07E2,2.2E1,6.02E2,6.7E1,3.5E1,7E0,4.2E1,8E0,1.2E1,3.3E1,3.6E1,3.5E1,5.5E1,2E0,1E0,4.6E1,1E0,1E0,1E0,3.3E1,1.74E2,1.5E1,7E0,5.41E2,6.1E1,6.4E1,3E0,1.4E1,2.1E1,4E0,3E0,2E1,2.2E1,5E0,3E0,2E0,1E1,2.3E1,1E1,1E0,3.5E1,2.9E1,6E0,4.2E1,1.3E1,4.5E1,1E0,2.9E1,4E0,7E0,8E0,3E0,4E0,4.23E2,1.18E2,4.4E1,1.7E1,1E1,5.4E1,1.3E1,1E0,1.1E1,1E1,2E0,2E0,1E0,2E0,7E0,1.3E1,1.7E1,5E0,4E0,1E0,1E0,1E0,9E0,1E0,7E0,1.6E1,7E0,3E0,3.2E1,3E0,2.1E1,8E0,1E0,5E0,3E0,3.9E1,2E0,1.1E1,3E0,4.2E1,2.8E1,1E0],"tree_param":{"num_deleted":"0","num_feature":"13","num_nodes":"117","size_leaf_vector":"1"}},{"base_weights":[2.8747958E-4,-7.730649E-2,3.52496E-1,-5.663387E-3,-1.8794922E-2,2.3079656E-1,4.5291188E-1,-2.7900454E-2,7.604103E-2,2.0099054E-1,3.197802E-1,4.2808965E-1,2.8311972E-2,-3.5900116E-2,2.0912059E-2,1.10365406E-1,-9.304689E-3,2.4566491E-1,1.6441697E-1,7.451746E-2,3.3355668E-1,8.2968086E-2,4.326906E-1,5.8740202E-2,-3.945041E-2,-5.356368E-3,6.994931E-2,1.3522708E-2,1.2581602E-1,6.297325E-2,-5.862752E-2,1.8165796E-1,2.978425E-1,9.51868E-2,2.0598607E-1,4.3253335E-3,9.6374605E-4,3.3816954E-1,2.9187892E-3,-4.4584143E-4,5.828433E-3,2.9834078E-3,4.3421173E-1,8.814372E-2,-7.409363E-3,-4.351484E-2,-5.08526E-4,-1.0736618E-2,4.1705896E-3,3.697921E-2,8.92494E-2,-2.7175235E-2,6.101446E-2,6.987721E-2,1.7142032E-1,1.233912E-2,6.1590574E-3,1.9869851E-2,-7.470612E-2,2.1720335E-1,8.758999E-2,2.7029198E-3,3.0311266E-1,1.2365697E-1,-4.0426377E-2,2.3432396E-1,1.0423493E-1,3.416245E-1,4.481045E-3,4.1104352E-1,4.7919363E-1,7.383745E-3,1.2716688E-3,1.2003661E-3,-1.5530419E-3,-2.257206E-3,2.9357376E-3,7.969673E-3,-7.652424E-4,1.5684152E-3,-9.4811956E-4,1.9293197E-3,3.6196635E-4,5.552585E-4,4.8254286E-3,-4.688082E-4,-1.7957947E-3,8.066312E-4,3.5298765E-3,4.414094E-3,-3.3370778E-4,3.6611685E-3,9.731464E-3,-1.4317656E-3,1.3130534E-3,-1.2803288E-3,2.7705678E-3,-3.8930872E-3,-1.0787476E-3,4.4164862E-3,1.3253654E-2,6.265243E-3,-4.8686322E-4,1.5722284E-2,6.6918633E-3,8.393402E-3,9.229034E-5,2.411871E-3,-3.1621624E-3,2.207076E-3,1.23742055E-2,7.3863505E-3,1.0812163E-3,1.7581869E-2,9.459573E-3,2.0778611E-2,7.4889087E-3,1.4160185E-2,2.5106749E-2],"categories":[],"categories_nodes":[],"categories_segments":[],"categories_sizes":[],"default_left":[0,0,0,0,0,0,0,0,0,0,0,0,0,0,0,0,0,0,0,0,0,0,0,0,0,0,0,0,0,0,0,0,0,0,0,0,0,0,0,0,0,0,0,0,0,0,0,0,0,0,0,0,0,0,0,0,0,0,0,0,0,0,0,0,0,0,0,0,0,0,0,0,0,0,0,0,0,0,0,0,0,0,0,0,0,0,0,0,0,0,0,0,0,0,0,0,0,0,0,0,0,0,0,0,0,0,0,0,0,0,0,0,0,0,0,0,0,0,0],"id":3,"left_children":[1,3,5,-1,7,9,11,13,15,17,19,21,-1,23,25,27,29,31,33,35,37,39,41,43,45,47,49,51,53,55,57,59,61,63,65,-1,-1,67,-1,-1,-1,-1,69,71,73,75,77,79,-1,81,83,85,87,89,91,93,-1,95,97,99,101,-1,103,105,107,109,111,113,-1,115,117,-1,-1,-1,-1,-1,-1,-1,-1,-1,-1,-1,-1,-1,-1,-1,-1,-1,-1,-1,-1,-1,-1,-1,-1,-1,-1,-1,-1,-1,-1,-1,-1,-1,-1,-1,-1,-1,-1,-1,-1,-1,-1,-1,-1,-1,-1,-1,-1],"loss_changes":[6.9634865E1,4.3913364E0,5.516926E0,0E0,6.894928E-1,4.9269962E-1,4.6367264E-1,2.8463227E-1,2.0608762E-1,2.2103262E-1,1.474657E-1,2.9755783E-1,0E0,2.1231788E-1,1.330522E-1,7.311255E-2,7.855597E-2,1.7967606E-1,2.4227619E-1,9.818468E-4,4.1188717E-2,1.3388969E-2,9.1545105E-2,4.538878E-2,9.541869E-2,3.337201E-2,1.9607365E-2,1.7120615E-2,9.771681E-2,2.591722E-2,1.7892055E-2,9.46604E-2,3.1150818E-2,1.4399254E-1,1.3704634E-1,0E0,0E0,9.7436905E-3,0E0,0E0,0E0,0E0,1.7715454E-2,5.5975653E-2,6.6900942E-3,9.3592644E-2,1.3966522E-1,2.3107277E-2,0E0,4.376229E-4,1.1408016E-2,4.4112466E-4,5.815001E-4,3.0176178E-2,3.816676E-2,4.174658E-3,0E0,6.2677963E-3,1.6441569E-4,1.2464583E-1,4.159767E-2,0E0,2.6977777E-2,1.6125217E-1,1.7211905E-2,9.669733E-2,4.7106177E-2,3.6826134E-3,0E0,1.0695267E-1,1.4555454E-1,0E0,0E0,0E0,0E0,0E0,0E0,0E0,0E0,0E0,0E0,0E0,0E0,0E0,0E0,0E0,0E0,0E0,0E0,0E0,0E0,0E0,0E0,0E0,0E0,0E0,0E0,0E0,0E0,0E0,0E0,0E0,0E0,0E0,0E0,0E0,0E0,0E0,0E0,0E0,0E0,0E0,0E0,0E0,0E0,0E0,0E0,0E0,0E0],"parents":[2147483647,0,0,1,1,2,2,4,4,5,5,6,6,7,7,8,8,9,9,10,10,11,11,13,13,14,14,15,15,16,16,17,17,18,18,19,19,20,20,21,21,22,22,23,23,24,24,25,25,26,26,27,27,28,28,29,29,30,30,31,31,32,32,33,33,34,34,37,37,42,42,43,43,44,44,45,45,46,46,47,47,49,49,50,50,51,51,52,52,53,53,54,54,55,55,57,57,58,58,59,59,60,60,62,62,63,63,64,64,65,65,66,66,67,67,69,69,70,70],"right_children":[2,4,6,-1,8,10,12,14,16,18,20,22,-1,24,26,28,30,32,34,36,38,40,42,44,46,48,50,52,54,56,58,60,62,64,66,-1,-1,68,-1,-1,-1,-1,70,72,74,76,78,80,-1,82,84,86,88,90,92,94,-1,96,98,100,102,-1,104,106,108,110,112,114,-1,116,118,-1,-1,-1,-1,-1,-1,-1,-1,-1,-1,-1,-1,-1,-1,-1,-1,-1,-1,-1,-1,-1,-1,-1,-1,-1,-1,-1,-1,-1,-1,-1,-1,-1,-1,-1,-1,-1,-1,-1,-1,-1,-1,-1,-1,-1,-1,-1,-1],"split_conditions":[3.2787722E-1,3.1076872E-1,5.598624E-1,-5.663387E-3,2.513814E-1,4.1492537E-1,7.4412495E-1,4.152312E-1,2.3028105E-1,4.464286E-3,3.3246085E-1,1.9402985E-1,2.8311972E-2,1.7497733E-1,4.119403E-1,7.4404763E-4,5.952381E-3,4.253602E-1,3.731983E-1,2.5101215E-1,9.182787E-1,1.6119403E-1,1.7538702E-2,5.098621E-1,6.666667E-1,1.4263591E-1,4.3773657E-1,6.212121E-1,2.4477611E-1,4.0192664E-1,7.725E-1,9.557928E-1,8.837938E-2,9.4391394E-1,4.4357917E-1,4.3253335E-3,9.6374605E-4,6.358209E-1,2.9187892E-3,-4.4584143E-4,5.828433E-3,2.9834078E-3,9.95E-1,5.6292975E-1,5.877976E-2,4.8679405E-1,9.381258E-1,8.7040186E-1,4.1705896E-3,5.2492046E-1,3.98981E-1,1.3452871E-1,2.4696356E-1,2.1492538E-1,3.8366914E-1,3.562753E-1,6.1590574E-3,5.7894737E-1,7.2469634E-1,2.6567164E-1,7.475E-1,2.7029198E-3,5.951417E-1,9.975E-1,4.0890688E-1,1.1641791E-1,2.0089285E-2,8.1845176E-1,4.481045E-3,6.994048E-2,3.274043E-1,7.383745E-3,1.2716688E-3,1.2003661E-3,-1.5530419E-3,-2.257206E-3,2.9357376E-3,7.969673E-3,-7.652424E-4,1.5684152E-3,-9.4811956E-4,1.9293197E-3,3.6196635E-4,5.552585E-4,4.8254286E-3,-4.688082E-4,-1.7957947E-3,8.066312E-4,3.5298765E-3,4.414094E-3,-3.3370778E-4,3.6611685E-3,9.731464E-3,-1.4317656E-3,1.3130534E-3,-1.2803288E-3,2.7705678E-3,-3.8930872E-3,-1.0787476E-3,4.4164862E-3,1.3253654E-2,6.265243E-3,-4.8686322E-4,1.5722284E-2,6.6918633E-3,8.393402E-3,9.229034E-5,2.411871E-3,-3.1621624E-3,2.207076E-3,1.23742055E-2,7.3863505E-3,1.0812163E-3,1.7581869E-2,9.459573E-3,2.0778611E-2,7.4889087E-3,1.4160185E-2,2.5106749E-2],"split_indices":[11,10,11,0,11,8,11,1,1,7,12,8,0,1,8,7,7,11,12,0,9,8,3,4,5,11,10,5,8,12,2,6,3,6,12,0,0,8,0,0,0,0,2,10,7,12,6,6,0,4,3,3,0,8,4,0,0,0,0,8,2,0,0,2,0,8,7,4,0,7,12,0,0,0,0,0,0,0,0,0,0,0,0,0,0,0,0,0,0,0,0,0,0,0,0,0,0,0,0,0,0,0,0,0,0,0,0,0,0,0,0,0,0,0,0,0,0,0,0],"split_type":[0,0,0,0,0,0,0,0,0,0,0,0,0,0,0,0,0,0,0,0,0,0,0,0,0,0,0,0,0,0,0,0,0,0,0,0,0,0,0,0,0,0,0,0,0,0,0,0,0,0,0,0,0,0,0,0,0,0,0,0,0,0,0,0,0,0,0,0,0,0,0,0,0,0,0,0,0,0,0,0,0,0,0,0,0,0,0,0,0,0,0,0,0,0,0,0,0,0,0,0,0,0,0,0,0,0,0,0,0,0,0,0,0,0,0,0,0,0,0],"sum_hessian":[2.546E3,2.087E3,4.59E2,1.292E3,7.95E2,2.09E2,2.5E2,7.26E2,6.9E1,1.59E2,5E1,2.09E2,4.1E1,6.24E2,1.02E2,4.9E1,2E1,6.9E1,9E1,3E0,4.7E1,3E0,2.06E2,2.2E1,6.02E2,6.7E1,3.5E1,7E0,4.2E1,8E0,1.2E1,3.3E1,3.6E1,3.5E1,5.5E1,2E0,1E0,4.6E1,1E0,1E0,2E0,1E0,2.05E2,1.5E1,7E0,5.45E2,5.7E1,6.4E1,3E0,1.4E1,2.1E1,4E0,3E0,2E1,2.2E1,5E0,3E0,2E0,1E1,2.3E1,1E1,1E0,3.5E1,2.9E1,6E0,4.2E1,1.3E1,4.5E1,1E0,1.42E2,6.3E1,7E0,8E0,3E0,4E0,5.37E2,8E0,4E0,5.3E1,1E1,5.4E1,1.3E1,1E0,2E0,1.9E1,2E0,2E0,1E0,2E0,1.6E1,4E0,5E0,1.7E1,1E0,4E0,1E0,1E0,9E0,1E0,7E0,1.6E1,7E0,3E0,3.2E1,3E0,2.1E1,8E0,1E0,5E0,3E0,3.9E1,8E0,5E0,4.1E1,4E0,1.39E2,3E0,8E0,5.5E1],"tree_param":{"num_deleted":"0","num_feature":"13","num_nodes":"119","size_leaf_vector":"1"}},{"base_weights":[3.7847873E-4,-7.341957E-2,3.3535662E-1,-5.380437E-3,-1.7791416E-2,2.1982378E-1,4.3068147E-1,-2.6466023E-2,7.2554745E-2,1.9143695E-1,3.0457023E-1,4.0704662E-1,2.6930077E-2,-3.407921E-2,1.9987453E-2,1.05238035E-1,-8.7176105E-3,2.3407544E-1,1.565344E-1,1.6727475E-3,3.1495342E-1,2.8964994E-2,4.1054276E-1,5.6164183E-2,-3.7464812E-2,-5.0180997E-3,6.666496E-2,1.3105561E-2,1.19931564E-1,6.0495738E-2,-5.596396E-2,1.7326471E-1,2.836292E-1,9.0642326E-2,1.9609834E-1,3.191434E-1,2.8458193E-3,-4.3469536E-4,2.60707E-3,3.2981685E-1,2.1194035E-2,8.42775E-2,-7.0829773E-3,-5.0776515E-2,-2.6445994E-2,-1.01902485E-2,4.014192E-3,3.528301E-2,8.503151E-2,-2.6269393E-2,5.9047863E-2,6.657765E-2,1.6343158E-1,1.1702374E-2,5.9280926E-3,1.9373102E-2,-7.14228E-2,1.20681025E-1,2.3976421E-1,2.6353467E-3,2.8857964E-1,1.1775698E-1,-3.8512245E-2,2.2294687E-1,9.962801E-2,2.650813E-1,3.6638135E-1,3.5579917E-1,5.397973E-3,8.709181E-4,6.717184E-3,1.1553525E-3,-1.4909202E-3,-2.910262E-3,-8.314441E-4,-1.4328731E-3,2.8052605E-3,-2.0394414E-3,3.1677428E-5,1.8397445E-3,3.5291724E-4,4.501951E-3,-5.031537E-4,-4.5318133E-4,-1.7359349E-3,7.864654E-4,3.4122139E-3,5.7591507E-3,1.7023804E-3,9.328032E-3,3.3402932E-3,-2.7022648E-4,2.4309221E-3,-1.2483208E-3,2.7013035E-3,-3.7178982E-3,-1.0517788E-3,-1.3649155E-3,6.8847276E-3,1.3037443E-2,-8.259069E-4,7.266875E-3,1.5097156E-2,7.992808E-3,8.8188215E-5,1.3355322E-3,-3.4971763E-3,2.124311E-3,1.1770963E-2,-1.3801544E-3,6.1566723E-3,8.6082285E-3,1.4840647E-2,7.4277907E-3,1.9002628E-2,1.8289967E-2,1.6448759E-3],"categories":[],"categories_nodes":[],"categories_segments":[],"categories_sizes":[],"default_left":[0,0,0,0,0,0,0,0,0,0,0,0,0,0,0,0,0,0,0,0,0,0,0,0,0,0,0,0,0,0,0,0,0,0,0,0,0,0,0,0,0,0,0,0,0,0,0,0,0,0,0,0,0,0,0,0,0,0,0,0,0,0,0,0,0,0,0,0,0,0,0,0,0,0,0,0,0,0,0,0,0,0,0,0,0,0,0,0,0,0,0,0,0,0,0,0,0,0,0,0,0,0,0,0,0,0,0,0,0,0,0,0,0,0,0,0,0],"id":4,"left_children":[1,3,5,-1,7,9,11,13,15,17,19,21,-1,23,25,27,29,31,33,-1,35,37,39,41,43,45,47,49,51,53,55,57,59,61,63,65,-1,-1,-1,67,-1,69,71,73,75,77,-1,79,81,83,85,87,89,91,-1,93,95,97,99,-1,101,103,105,107,109,111,113,115,-1,-1,-1,-1,-1,-1,-1,-1,-1,-1,-1,-1,-1,-1,-1,-1,-1,-1,-1,-1,-1,-1,-1,-1,-1,-1,-1,-1,-1,-1,-1,-1,-1,-1,-1,-1,-1,-1,-1,-1,-1,-1,-1,-1,-1,-1,-1,-1,-1],"loss_changes":[6.2988327E1,3.9692106E0,4.9713707E0,0E0,6.2575936E-1,4.4688702E-1,4.2098618E-1,2.5779122E-1,1.8685478E-1,2.014699E-1,1.3303041E-1,2.6569366E-1,0E0,1.9305938E-1,1.205558E-1,6.6115856E-2,7.205722E-2,1.6179514E-1,2.1945763E-1,0E0,3.4813404E-2,3.0717065E-3,8.415222E-2,4.1492954E-2,8.710474E-2,3.0819327E-2,1.7749444E-2,1.602296E-2,8.891767E-2,2.4111714E-2,1.6523786E-2,8.9955926E-2,2.7086735E-2,1.3060644E-1,1.2283301E-1,2.546072E-2,0E0,0E0,0E0,1.5757656E-1,0E0,5.1218055E-2,6.18008E-3,6.803131E-2,6.2217444E-2,2.1553373E-2,0E0,3.803745E-4,1.1382192E-2,4.122064E-4,5.200654E-4,2.9282115E-2,3.8938463E-2,4.0518777E-3,0E0,5.9583243E-3,6.2681735E-5,5.662948E-2,7.959902E-2,0E0,2.5028229E-2,1.462146E-1,1.621851E-2,8.678126E-2,4.5267597E-2,2.5557756E-2,1.2033701E-2,8.483815E-2,0E0,0E0,0E0,0E0,0E0,0E0,0E0,0E0,0E0,0E0,0E0,0E0,0E0,0E0,0E0,0E0,0E0,0E0,0E0,0E0,0E0,0E0,0E0,0E0,0E0,0E0,0E0,0E0,0E0,0E0,0E0,0E0,0E0,0E0,0E0,0E0,0E0,0E0,0E0,0E0,0E0,0E0,0E0,0E0,0E0,0E0,0E0,0E0,0E0],"parents":[2147483647,0,0,1,1,2,2,4,4,5,5,6,6,7,7,8,8,9,9,10,10,11,11,13,13,14,14,15,15,16,16,17,17,18,18,20,20,21,21,22,22,23,23,24,24,25,25,26,26,27,27,28,28,29,29,30,30,31,31,32,32,33,33,34,34,35,35,39,39,41,41,42,42,43,43,44,44,45,45,47,47,48,48,49,49,50,50,51,51,52,52,53,53,55,55,56,56,57,57,58,58,60,60,61,61,62,62,63,63,64,64,65,65,66,66,67,67],"right_children":[2,4,6,-1,8,10,12,14,16,18,20,22,-1,24,26,28,30,32,34,-1,36,38,40,42,44,46,48,50,52,54,56,58,60,62,64,66,-1,-1,-1,68,-1,70,72,74,76,78,-1,80,82,84,86,88,90,92,-1,94,96,98,100,-1,102,104,106,108,110,112,114,116,-1,-1,-1,-1,-1,-1,-1,-1,-1,-1,-1,-1,-1,-1,-1,-1,-1,-1,-1,-1,-1,-1,-1,-1,-1,-1,-1,-1,-1,-1,-1,-1,-1,-1,-1,-1,-1,-1,-1,-1,-1,-1,-1,-1,-1,-1,-1,-1,-1],"split_conditions":[3.2787722E-1,3.1076872E-1,5.598624E-1,-5.380437E-3,2.513814E-1,4.1492537E-1,7.4412495E-1,4.152312E-1,2.3028105E-1,4.464286E-3,2.8121868E-1,1.8208955E-1,2.6930077E-2,1.7497733E-1,4.119403E-1,7.4404763E-4,5.952381E-3,4.253602E-1,3.731983E-1,1.6727475E-3,9.182787E-1,8.5020244E-1,4.358209E-1,5.098621E-1,1.17217354E-1,1.4263591E-1,4.3773657E-1,6.212121E-1,2.4477611E-1,4.0192664E-1,7.725E-1,4.008097E-1,8.837938E-2,9.4391394E-1,4.4357917E-1,5.263251E-1,2.8458193E-3,-4.3469536E-4,2.60707E-3,2.0398912E-1,2.1194035E-2,2.0914195E-1,5.877976E-2,3.9104477E-1,4.8679405E-1,2.80597E-1,4.014192E-3,5.2492046E-1,4.090909E-1,1.3452871E-1,2.4696356E-1,1.7135087E-1,5.860021E-1,3.720238E-3,5.9280926E-3,5.7894737E-1,7.2469634E-1,5.142073E-1,9.6955377E-1,2.6353467E-3,4.6969697E-1,9.975E-1,1.7135087E-1,1.1641791E-1,4.4630778E-1,3.9741528E-1,7.524932E-2,6.7463577E-1,5.397973E-3,8.709181E-4,6.717184E-3,1.1553525E-3,-1.4909202E-3,-2.910262E-3,-8.314441E-4,-1.4328731E-3,2.8052605E-3,-2.0394414E-3,3.1677428E-5,1.8397445E-3,3.5291724E-4,4.501951E-3,-5.031537E-4,-4.5318133E-4,-1.7359349E-3,7.864654E-4,3.4122139E-3,5.7591507E-3,1.7023804E-3,9.328032E-3,3.3402932E-3,-2.7022648E-4,2.4309221E-3,-1.2483208E-3,2.7013035E-3,-3.7178982E-3,-1.0517788E-3,-1.3649155E-3,6.8847276E-3,1.3037443E-2,-8.259069E-4,7.266875E-3,1.5097156E-2,7.992808E-3,8.8188215E-5,1.3355322E-3,-3.4971763E-3,2.124311E-3,1.1770963E-2,-1.3801544E-3,6.1566723E-3,8.6082285E-3,1.4840647E-2,7.4277907E-3,1.9002628E-2,1.8289967E-2,1.6448759E-3],"split_indices":[11,10,11,0,11,8,11,1,1,7,12,8,0,1,8,7,7,11,12,0,9,0,8,4,11,11,10,5,8,12,2,0,3,6,12,11,0,0,0,1,0,12,7,8,12,8,0,4,5,3,0,1,4,7,0,0,0,3,6,0,5,2,1,8,12,12,1,11,0,0,0,0,0,0,0,0,0,0,0,0,0,0,0,0,0,0,0,0,0,0,0,0,0,0,0,0,0,0,0,0,0,0,0,0,0,0,0,0,0,0,0,0,0,0,0,0,0],"split_type":[0,0,0,0,0,0,0,0,0,0,0,0,0,0,0,0,0,0,0,0,0,0,0,0,0,0,0,0,0,0,0,0,0,0,0,0,0,0,0,0,0,0,0,0,0,0,0,0,0,0,0,0,0,0,0,0,0,0,0,0,0,0,0,0,0,0,0,0,0,0,0,0,0,0,0,0,0,0,0,0,0,0,0,0,0,0,0,0,0,0,0,0,0,0,0,0,0,0,0,0,0,0,0,0,0,0,0,0,0,0,0,0,0,0,0,0,0],"sum_hessian":[2.546E3,2.087E3,4.59E2,1.292E3,7.95E2,2.09E2,2.5E2,7.26E2,6.9E1,1.59E2,5E1,2.09E2,4.1E1,6.24E2,1.02E2,4.9E1,2E1,6.9E1,9E1,2E0,4.8E1,2E0,2.07E2,2.2E1,6.02E2,6.7E1,3.5E1,7E0,4.2E1,8E0,1.2E1,3.3E1,3.6E1,3.5E1,5.5E1,4.7E1,1E0,1E0,1E0,3.3E1,1.74E2,1.5E1,7E0,2.71E2,3.31E2,6.4E1,3E0,1.4E1,2.1E1,4E0,3E0,2E1,2.2E1,5E0,3E0,2E0,1E1,2E1,1.3E1,1E0,3.5E1,2.9E1,6E0,4.2E1,1.3E1,2.5E1,2.2E1,2.9E1,4E0,7E0,8E0,3E0,4E0,2.22E2,4.9E1,3.23E2,8E0,1.6E1,4.8E1,1.3E1,1E0,2E1,1E0,2E0,2E0,1E0,2E0,7E0,1.3E1,1.7E1,5E0,4E0,1E0,1E0,1E0,9E0,1E0,2E0,1.8E1,1.2E1,1E0,4E0,3.1E1,2.1E1,8E0,2E0,4E0,3E0,3.9E1,2E0,1.1E1,8E0,1.7E1,2E0,2E1,2.8E1,1E0],"tree_param":{"num_deleted":"0","num_feature":"13","num_nodes":"117","size_leaf_vector":"1"}},{"base_weights":[4.506265E-4,-6.973202E-2,3.190178E-1,-5.111623E-3,-1.6851604E-2,2.0941222E-1,4.094487E-1,-2.512473E-2,6.9311455E-2,1.8228588E-1,2.9040834E-1,3.8692617E-1,2.5615633E-2,-3.2367438E-2,1.9067671E-2,1.0041892E-1,-8.0544865E-3,2.2298212E-1,1.4897792E-1,1.6169893E-3,3.0028176E-1,7.5049736E-2,3.9108357E-1,5.36713E-2,-3.5595503E-2,-4.7376887E-3,6.350369E-2,1.2701477E-2,1.1440312E-1,5.8369707E-2,-5.342089E-2,1.18354164E-1,2.4702564E-1,8.627464E-2,1.8662685E-1,3.042254E-1,2.7746737E-3,-4.2382797E-4,5.285868E-3,2.4515733E-3,3.92506E-1,8.0537885E-2,-6.770772E-3,-3.9439216E-2,1.2021152E-3,-9.711625E-3,3.86366E-3,4.1394807E-2,8.8552624E-2,-2.5393747E-2,5.7145137E-2,6.360408E-2,1.558108E-1,1.1477376E-2,5.7057887E-3,1.8888773E-2,-3.4142633E-3,2.139591E-1,4.9155787E-2,1.0310958E-1,2.6223338E-1,1.121385E-1,-3.689544E-2,2.1212268E-1,9.498779E-2,2.5272912E-1,3.492114E-1,4.5838335E-1,3.7681872E-1,6.766829E-3,1.1439639E-3,-9.866316E-4,2.0990563E-3,-2.3145508E-3,-8.116248E-4,7.7082003E-3,-6.491642E-4,1.4956833E-3,-8.730054E-4,1.1654748E-3,2.9478853E-3,2.0424237E-3,5.326141E-3,-4.380755E-4,-1.67807E-3,7.668037E-4,3.2984733E-3,4.201643E-3,-7.36683E-5,5.9466143E-3,1.2023895E-2,-1.3892157E-3,1.2443288E-3,-1.2171129E-3,2.633771E-3,1.1817268E-2,2.550697E-3,4.325527E-3,-1.4251987E-3,-1.4531413E-3,6.4991056E-3,1.4119083E-2,7.6701054E-3,7.611334E-3,8.426888E-5,2.318186E-3,-2.9249627E-3,2.0446493E-3,1.1197129E-2,6.8751196E-3,7.692296E-4,8.225641E-3,1.4139838E-2,7.1801976E-3,1.809774E-2,1.180189E-2,2.437865E-2,1.913787E-2,7.436108E-3],"categories":[],"categories_nodes":[],"categories_segments":[],"categories_sizes":[],"default_left":[0,0,0,0,0,0,0,0,0,0,0,0,0,0,0,0,0,0,0,0,0,0,0,0,0,0,0,0,0,0,0,0,0,0,0,0,0,0,0,0,0,0,0,0,0,0,0,0,0,0,0,0,0,0,0,0,0,0,0,0,0,0,0,0,0,0,0,0,0,0,0,0,0,0,0,0,0,0,0,0,0,0,0,0,0,0,0,0,0,0,0,0,0,0,0,0,0,0,0,0,0,0,0,0,0,0,0,0,0,0,0,0,0,0,0,0,0,0,0],"id":5,"left_children":[1,3,5,-1,7,9,11,13,15,17,19,21,-1,23,25,27,29,31,33,-1,35,37,39,41,43,45,47,49,51,53,55,57,59,61,63,65,-1,-1,-1,-1,67,69,71,73,75,77,-1,79,81,83,85,87,89,91,-1,93,-1,95,97,99,101,103,105,107,109,111,113,115,117,-1,-1,-1,-1,-1,-1,-1,-1,-1,-1,-1,-1,-1,-1,-1,-1,-1,-1,-1,-1,-1,-1,-1,-1,-1,-1,-1,-1,-1,-1,-1,-1,-1,-1,-1,-1,-1,-1,-1,-1,-1,-1,-1,-1,-1,-1,-1,-1,-1,-1],"loss_changes":[5.6967777E1,3.586791E0,4.4736557E0,0E0,5.6916034E-1,4.0845966E-1,3.832779E-1,2.3331001E-1,1.692749E-1,1.8366194E-1,1.2023783E-1,2.4293327E-1,0E0,1.7549717E-1,1.09255865E-1,5.987984E-2,6.6400126E-2,1.4685726E-1,1.9872355E-1,0E0,3.0419827E-2,1.1142328E-2,8.146858E-2,3.789436E-2,8.5335374E-2,2.84888E-2,1.6271308E-2,1.4995859E-2,8.053905E-2,2.2216817E-2,1.52627155E-2,8.871828E-2,9.552503E-2,1.18820935E-1,1.1069012E-1,2.294159E-2,0E0,0E0,0E0,0E0,4.016304E-2,4.7457457E-2,5.88372E-3,8.606684E-2,1.2785141E-1,2.0479629E-2,0E0,5.295966E-3,9.364754E-3,3.851829E-4,4.6403613E-4,2.8042331E-2,4.321456E-2,3.850264E-3,0E0,5.664133E-3,0E0,9.829491E-3,3.1475507E-2,2.8640293E-2,6.632018E-2,1.3257936E-1,1.53032495E-2,7.787061E-2,4.526475E-2,2.2440195E-2,8.284807E-3,1.1207008E-1,1.7606544E-1,0E0,0E0,0E0,0E0,0E0,0E0,0E0,0E0,0E0,0E0,0E0,0E0,0E0,0E0,0E0,0E0,0E0,0E0,0E0,0E0,0E0,0E0,0E0,0E0,0E0,0E0,0E0,0E0,0E0,0E0,0E0,0E0,0E0,0E0,0E0,0E0,0E0,0E0,0E0,0E0,0E0,0E0,0E0,0E0,0E0,0E0,0E0,0E0,0E0,0E0],"parents":[2147483647,0,0,1,1,2,2,4,4,5,5,6,6,7,7,8,8,9,9,10,10,11,11,13,13,14,14,15,15,16,16,17,17,18,18,20,20,21,21,22,22,23,23,24,24,25,25,26,26,27,27,28,28,29,29,30,30,31,31,32,32,33,33,34,34,35,35,40,40,41,41,42,42,43,43,44,44,45,45,47,47,48,48,49,49,50,50,51,51,52,52,53,53,55,55,57,57,58,58,59,59,60,60,61,61,62,62,63,63,64,64,65,65,66,66,67,67,68,68],"right_children":[2,4,6,-1,8,10,12,14,16,18,20,22,-1,24,26,28,30,32,34,-1,36,38,40,42,44,46,48,50,52,54,56,58,60,62,64,66,-1,-1,-1,-1,68,70,72,74,76,78,-1,80,82,84,86,88,90,92,-1,94,-1,96,98,100,102,104,106,108,110,112,114,116,118,-1,-1,-1,-1,-1,-1,-1,-1,-1,-1,-1,-1,-1,-1,-1,-1,-1,-1,-1,-1,-1,-1,-1,-1,-1,-1,-1,-1,-1,-1,-1,-1,-1,-1,-1,-1,-1,-1,-1,-1,-1,-1,-1,-1,-1,-1,-1,-1,-1,-1],"split_conditions":[3.2787722E-1,3.1076872E-1,5.598624E-1,-5.111623E-3,2.513814E-1,4.1492537E-1,7.4412495E-1,4.152312E-1,2.3028105E-1,4.464286E-3,2.8121868E-1,1.9402985E-1,2.5615633E-2,1.7497733E-1,4.119403E-1,7.4404763E-4,5.952381E-3,3.7468353E-1,3.731983E-1,1.6169893E-3,9.182787E-1,1.6119403E-1,1.7538702E-2,5.098621E-1,6.666667E-1,1.4263591E-1,4.8656717E-1,6.212121E-1,2.4477611E-1,4.0192664E-1,7.725E-1,9.317216E-1,2.5373134E-1,9.4391394E-1,4.4357917E-1,5.263251E-1,2.7746737E-3,-4.2382797E-4,5.285868E-3,2.4515733E-3,5.3949493E-1,5.6292975E-1,4.5051083E-1,4E-1,9.381258E-1,8.7040186E-1,3.86366E-3,1.1570637E-1,4.3773657E-1,1.3452871E-1,2.4696356E-1,5.0757575E-1,6.4777327E-1,3.562753E-1,5.7057887E-3,5.7894737E-1,-3.4142633E-3,6.372722E-1,7.475E-1,4.0682822E-1,6.8939394E-1,9.975E-1,4.0890688E-1,1.1641791E-1,5.681818E-1,3.9741528E-1,7.524932E-2,3.513915E-1,6.994048E-2,6.766829E-3,1.1439639E-3,-9.866316E-4,2.0990563E-3,-2.3145508E-3,-8.116248E-4,7.7082003E-3,-6.491642E-4,1.4956833E-3,-8.730054E-4,1.1654748E-3,2.9478853E-3,2.0424237E-3,5.326141E-3,-4.380755E-4,-1.67807E-3,7.668037E-4,3.2984733E-3,4.201643E-3,-7.36683E-5,5.9466143E-3,1.2023895E-2,-1.3892157E-3,1.2443288E-3,-1.2171129E-3,2.633771E-3,1.1817268E-2,2.550697E-3,4.325527E-3,-1.4251987E-3,-1.4531413E-3,6.4991056E-3,1.4119083E-2,7.6701054E-3,7.611334E-3,8.426888E-5,2.318186E-3,-2.9249627E-3,2.0446493E-3,1.1197129E-2,6.8751196E-3,7.692296E-4,8.225641E-3,1.4139838E-2,7.1801976E-3,1.809774E-2,1.180189E-2,2.437865E-2,1.913787E-2,7.436108E-3],"split_indices":[11,10,11,0,11,8,11,1,1,7,12,8,0,1,8,7,7,11,12,0,9,8,3,4,5,11,8,5,8,12,2,6,8,6,12,11,0,0,0,0,6,10,12,8,6,6,0,11,10,3,0,5,0,0,0,0,0,3,2,11,5,2,0,8,5,12,1,12,7,0,0,0,0,0,0,0,0,0,0,0,0,0,0,0,0,0,0,0,0,0,0,0,0,0,0,0,0,0,0,0,0,0,0,0,0,0,0,0,0,0,0,0,0,0,0,0,0,0,0],"split_type":[0,0,0,0,0,0,0,0,0,0,0,0,0,0,0,0,0,0,0,0,0,0,0,0,0,0,0,0,0,0,0,0,0,0,0,0,0,0,0,0,0,0,0,0,0,0,0,0,0,0,0,0,0,0,0,0,0,0,0,0,0,0,0,0,0,0,0,0,0,0,0,0,0,0,0,0,0,0,0,0,0,0,0,0,0,0,0,0,0,0,0,0,0,0,0,0,0,0,0,0,0,0,0,0,0,0,0,0,0,0,0,0,0,0,0,0,0,0,0],"sum_hessian":[2.546E3,2.087E3,4.59E2,1.292E3,7.95E2,2.09E2,2.5E2,7.26E2,6.9E1,1.59E2,5E1,2.09E2,4.1E1,6.24E2,1.02E2,4.9E1,2E1,6.9E1,9E1,2E0,4.8E1,3E0,2.06E2,2.2E1,6.02E2,6.7E1,3.5E1,7E0,4.2E1,8E0,1.2E1,1.4E1,5.5E1,3.5E1,5.5E1,4.7E1,1E0,1E0,2E0,1E0,2.05E2,1.5E1,7E0,5.45E2,5.7E1,6.4E1,3E0,2E1,1.5E1,4E0,3E0,2E1,2.2E1,5E0,3E0,2E0,1E1,5E0,9E0,6E0,4.9E1,2.9E1,6E0,4.2E1,1.3E1,2.5E1,2.2E1,3.4E1,1.71E2,7E0,8E0,6E0,1E0,4.2E2,1.25E2,4E0,5.3E1,1E1,5.4E1,1.1E1,9E0,5E0,1E1,2E0,2E0,1E0,2E0,1.5E1,5E0,1.7E1,5E0,1E0,4E0,1E0,1E0,4E0,1E0,6E0,3E0,1E0,5E0,4E1,9E0,2.1E1,8E0,1E0,5E0,3E0,3.9E1,8E0,5E0,8E0,1.7E1,2E0,2E1,5E0,2.9E1,1.66E2,5E0],"tree_param":{"num_deleted":"0","num_feature":"13","num_nodes":"119","size_leaf_vector":"1"}},{"base_weights":[5.345805E-4,-6.622079E-2,3.0354473E-1,-1.5884537E-2,-4.854745E-3,1.9953261E-1,3.893575E-1,-2.3781033E-2,6.624032E-2,1.7362206E-1,2.7690822E-1,3.679135E-1,4.8730692E-1,-3.0728336E-2,1.9021373E-2,9.587892E-2,-7.482079E-3,2.1246305E-1,1.4183643E-1,1.5630899E-3,2.862966E-1,7.251276E-2,3.7184438E-1,2.4618853E-2,6.9858045E-3,5.1380053E-2,-3.3809207E-2,-3.6287776E-3,6.064745E-2,1.2310046E-2,1.0919688E-1,5.6069106E-2,-5.0903507E-2,1.56795E-1,2.5787523E-1,8.215782E-2,1.7766847E-1,2.900067E-1,2.705307E-3,-4.132321E-4,5.109672E-3,2.390284E-3,3.7318534E-1,6.952226E-2,-2.7836356E-2,-3.7704155E-2,7.8550645E-4,-3.5953548E-2,8.979374E-3,3.952094E-2,8.4585525E-2,-2.4547286E-2,5.53042E-2,6.0620442E-2,1.4880158E-1,1.0879365E-2,5.491822E-3,1.8416556E-2,-6.518139E-2,1.0816503E-1,2.185403E-1,2.7893883E-1,1.613509E-1,1.067881E-1,-3.5137348E-2,2.0182447E-1,9.078443E-2,2.4095286E-1,3.328499E-1,3.5163987E-1,4.1549495E-1,6.7127444E-4,5.454971E-3,-1.8480292E-3,-4.716672E-4,-2.423258E-3,-9.888851E-4,-1.3649921E-3,3.547762E-3,-5.0212315E-4,-2.511574E-3,7.823027E-4,-2.6408306E-3,1.112057E-3,2.8152305E-3,1.9573227E-3,5.0840443E-3,-1.447209E-3,-1.7399267E-4,1.2072712E-3,3.719513E-3,-1.0576824E-3,3.7712331E-3,5.6658015E-3,1.1522899E-2,-2.828546E-4,2.3390413E-3,-1.186685E-3,2.567927E-3,-3.3969507E-3,-9.401277E-4,-1.5305172E-3,6.219202E-3,1.1885959E-2,-7.696293E-4,6.3476074E-3,1.4908931E-2,1.4865078E-2,4.00181E-3,1.7472211E-3,8.373364E-3,1.3011274E-3,-3.2402908E-3,1.967975E-3,1.0651268E-2,6.6225133E-3,6.577465E-4,1.3512813E-2,7.778678E-3,6.9408575E-3,1.7235942E-2,3.43462E-3,1.7758308E-2,1.1990125E-2,2.1815585E-2],"categories":[],"categories_nodes":[],"categories_segments":[],"categories_sizes":[],"default_left":[0,0,0,0,0,0,0,0,0,0,0,0,0,0,0,0,0,0,0,0,0,0,0,0,0,0,0,0,0,0,0,0,0,0,0,0,0,0,0,0,0,0,0,0,0,0,0,0,0,0,0,0,0,0,0,0,0,0,0,0,0,0,0,0,0,0,0,0,0,0,0,0,0,0,0,0,0,0,0,0,0,0,0,0,0,0,0,0,0,0,0,0,0,0,0,0,0,0,0,0,0,0,0,0,0,0,0,0,0,0,0,0,0,0,0,0,0,0,0,0,0,0,0,0,0],"id":6,"left_children":[1,3,5,7,-1,9,11,13,15,17,19,21,23,25,27,29,31,33,35,-1,37,39,41,-1,-1,43,45,47,49,51,53,55,57,59,61,63,65,67,-1,-1,-1,-1,69,71,73,75,77,79,81,83,85,87,89,91,93,95,-1,97,99,101,103,105,107,109,111,113,115,117,119,121,123,-1,-1,-1,-1,-1,-1,-1,-1,-1,-1,-1,-1,-1,-1,-1,-1,-1,-1,-1,-1,-1,-1,-1,-1,-1,-1,-1,-1,-1,-1,-1,-1,-1,-1,-1,-1,-1,-1,-1,-1,-1,-1,-1,-1,-1,-1,-1,-1,-1,-1,-1,-1,-1,-1],"loss_changes":[5.1539684E1,3.243391E0,4.0280724E0,5.171316E-1,0E0,3.7294006E-1,3.4791946E-1,2.1646878E-1,1.5366942E-1,1.6739893E-1,1.0866761E-1,2.1688461E-1,5.2251816E-3,1.598404E-1,9.638944E-2,5.4304123E-2,6.0803257E-2,1.3652682E-1,1.7999828E-1,0E0,2.6519775E-2,1.04347095E-2,7.21035E-2,0E0,0E0,3.4989953E-2,8.128071E-2,2.7629066E-2,1.4863297E-2,1.4034766E-2,7.3705316E-2,2.0672634E-2,1.4067084E-2,7.845241E-2,3.0219555E-2,1.07756734E-1,9.920859E-2,2.0676613E-2,0E0,0E0,0E0,0E0,4.168129E-2,4.0718153E-2,4.9090455E-4,1.0359681E-1,1.2412304E-1,6.5247267E-3,2.1013096E-2,4.838109E-3,8.448318E-3,3.624349E-4,5.826093E-4,2.701813E-2,4.053074E-2,3.826741E-3,0E0,5.384467E-3,1.2942404E-4,5.1074192E-2,6.64711E-2,4.694724E-2,7.56982E-2,1.2493041E-1,1.4388054E-2,6.986487E-2,4.3540604E-2,2.3004651E-2,5.1152706E-3,1.1828232E-1,1.2944126E-1,0E0,0E0,0E0,0E0,0E0,0E0,0E0,0E0,0E0,0E0,0E0,0E0,0E0,0E0,0E0,0E0,0E0,0E0,0E0,0E0,0E0,0E0,0E0,0E0,0E0,0E0,0E0,0E0,0E0,0E0,0E0,0E0,0E0,0E0,0E0,0E0,0E0,0E0,0E0,0E0,0E0,0E0,0E0,0E0,0E0,0E0,0E0,0E0,0E0,0E0,0E0,0E0,0E0,0E0],"parents":[2147483647,0,0,1,1,2,2,3,3,5,5,6,6,7,7,8,8,9,9,10,10,11,11,12,12,13,13,14,14,15,15,16,16,17,17,18,18,20,20,21,21,22,22,25,25,26,26,27,27,28,28,29,29,30,30,31,31,32,32,33,33,34,34,35,35,36,36,37,37,42,42,43,43,44,44,45,45,46,46,47,47,48,48,49,49,50,50,51,51,52,52,53,53,54,54,55,55,57,57,58,58,59,59,60,60,61,61,62,62,63,63,64,64,65,65,66,66,67,67,68,68,69,69,70,70],"right_children":[2,4,6,8,-1,10,12,14,16,18,20,22,24,26,28,30,32,34,36,-1,38,40,42,-1,-1,44,46,48,50,52,54,56,58,60,62,64,66,68,-1,-1,-1,-1,70,72,74,76,78,80,82,84,86,88,90,92,94,96,-1,98,100,102,104,106,108,110,112,114,116,118,120,122,124,-1,-1,-1,-1,-1,-1,-1,-1,-1,-1,-1,-1,-1,-1,-1,-1,-1,-1,-1,-1,-1,-1,-1,-1,-1,-1,-1,-1,-1,-1,-1,-1,-1,-1,-1,-1,-1,-1,-1,-1,-1,-1,-1,-1,-1,-1,-1,-1,-1,-1,-1,-1,-1,-1],"split_conditions":[3.2787722E-1,5.385313E-1,5.598624E-1,2.513814E-1,-4.854745E-3,4.1492537E-1,7.4412495E-1,4.152312E-1,2.3028105E-1,4.464286E-3,2.8121868E-1,1.9402985E-1,7.121212E-1,1.7497733E-1,4.119403E-1,7.4404763E-4,5.952381E-3,4.253602E-1,3.731983E-1,1.5630899E-3,9.182787E-1,1.6119403E-1,1.7538702E-2,2.4618853E-2,6.9858045E-3,8.1101194E-2,1.7871739E-1,2.925373E-1,4.8656717E-1,6.212121E-1,2.4477611E-1,4.0192664E-1,7.725E-1,4.008097E-1,2.232143E-3,9.4391394E-1,4.4357917E-1,5.263251E-1,2.705307E-3,-4.132321E-4,5.109672E-3,2.390284E-3,9.95E-1,2.0914195E-1,6.923077E-1,3.6119404E-1,5.378788E-1,4.1985583E-1,4.1666666E-1,1.1570637E-1,4.3773657E-1,6.233298E-1,2.672065E-1,5.3E-1,6.4777327E-1,3.720238E-3,5.491822E-3,5.7894737E-1,7.2469634E-1,5.142073E-1,9.6955377E-1,3.2388663E-1,1.3508613E-1,7.780276E-1,1.7135087E-1,1.1641791E-1,2.0089285E-2,6.967126E-1,7.524932E-2,4.1662577E-1,3.274043E-1,6.7127444E-4,5.454971E-3,-1.8480292E-3,-4.716672E-4,-2.423258E-3,-9.888851E-4,-1.3649921E-3,3.547762E-3,-5.0212315E-4,-2.511574E-3,7.823027E-4,-2.6408306E-3,1.112057E-3,2.8152305E-3,1.9573227E-3,5.0840443E-3,-1.447209E-3,-1.7399267E-4,1.2072712E-3,3.719513E-3,-1.0576824E-3,3.7712331E-3,5.6658015E-3,1.1522899E-2,-2.828546E-4,2.3390413E-3,-1.186685E-3,2.567927E-3,-3.3969507E-3,-9.401277E-4,-1.5305172E-3,6.219202E-3,1.1885959E-2,-7.696293E-4,6.3476074E-3,1.4908931E-2,1.4865078E-2,4.00181E-3,1.7472211E-3,8.373364E-3,1.3011274E-3,-3.2402908E-3,1.967975E-3,1.0651268E-2,6.6225133E-3,6.577465E-4,1.3512813E-2,7.778678E-3,6.9408575E-3,1.7235942E-2,3.43462E-3,1.7758308E-2,1.1990125E-2,2.1815585E-2],"split_indices":[11,1,11,11,0,8,11,1,1,7,12,8,5,1,8,7,7,11,12,0,9,8,3,0,0,7,11,8,8,5,8,12,2,0,7,6,12,11,0,0,0,0,2,12,0,8,5,10,5,11,10,4,0,2,0,7,0,0,0,3,6,0,1,6,1,8,7,4,1,10,12,0,0,0,0,0,0,0,0,0,0,0,0,0,0,0,0,0,0,0,0,0,0,0,0,0,0,0,0,0,0,0,0,0,0,0,0,0,0,0,0,0,0,0,0,0,0,0,0,0,0,0,0,0,0],"split_type":[0,0,0,0,0,0,0,0,0,0,0,0,0,0,0,0,0,0,0,0,0,0,0,0,0,0,0,0,0,0,0,0,0,0,0,0,0,0,0,0,0,0,0,0,0,0,0,0,0,0,0,0,0,0,0,0,0,0,0,0,0,0,0,0,0,0,0,0,0,0,0,0,0,0,0,0,0,0,0,0,0,0,0,0,0,0,0,0,0,0,0,0,0,0,0,0,0,0,0,0,0,0,0,0,0,0,0,0,0,0,0,0,0,0,0,0,0,0,0,0,0,0,0,0,0],"sum_hessian":[2.546E3,2.087E3,4.59E2,7.94E2,1.293E3,2.09E2,2.5E2,7.25E2,6.9E1,1.59E2,5E1,2.09E2,4.1E1,6.24E2,1.01E2,4.9E1,2E1,6.9E1,9E1,2E0,4.8E1,3E0,2.06E2,4E1,1E0,2.2E1,6.02E2,6.6E1,3.5E1,7E0,4.2E1,8E0,1.2E1,3.3E1,3.6E1,3.5E1,5.5E1,4.7E1,1E0,1E0,2E0,1E0,2.05E2,1.8E1,4E0,5.41E2,6.1E1,1.8E1,4.8E1,2E1,1.5E1,4E0,3E0,2E1,2.2E1,5E0,3E0,2E0,1E1,2E1,1.3E1,2.8E1,8E0,2.9E1,6E0,4.2E1,1.3E1,2.5E1,2.2E1,1.42E2,6.3E1,8E0,1E1,2E0,2E0,3.37E2,2.04E2,4.4E1,1.7E1,7E0,1.1E1,4.4E1,4E0,1.1E1,9E0,5E0,1E1,3E0,1E0,2E0,1E0,3E0,1.7E1,1.7E1,5E0,4E0,1E0,1E0,1E0,9E0,1E0,2E0,1.8E1,1.2E1,1E0,4E0,2.4E1,2E0,6E0,1.4E1,1.5E1,2E0,4E0,3E0,3.9E1,8E0,5E0,1.7E1,8E0,2E0,2E1,2E0,1.4E2,8E0,5.5E1],"tree_param":{"num_deleted":"0","num_feature":"13","num_nodes":"125","size_leaf_vector":"1"}},{"base_weights":[6.0956157E-4,-6.2894605E-2,2.8886193E-1,-9.198655E-2,-1.4587092E-2,1.9019288E-1,3.702629E-1,-4.610435E-3,-2.8598184E-2,-2.2173272E-2,6.332545E-2,1.6546603E-1,2.6403806E-1,3.498135E-1,4.6369407E-1,-2.5844276E-3,-2.0479478E-3,-2.868973E-2,1.8320179E-2,9.353941E-2,-2.4830524E-3,2.0263888E-1,1.350532E-1,6.2100787E-2,2.7536535E-1,2.505471E-2,3.5281572E-1,9.741139E-3,4.7226706E-1,-1.9729882E-4,3.4667553E-6,4.897655E-2,-3.1638782E-2,-3.8937477E-3,5.7919763E-2,1.210774E-2,1.0714707E-1,5.4104317E-2,-3.6269937E-2,1.0636009E-1,2.248093E-1,1.6850181E-1,7.6721095E-2,3.594498E-3,8.183319E-4,2.7897936E-1,2.6376743E-3,-4.0290115E-4,2.2820046E-3,2.8037754E-1,3.6487332E-1,4.8159096E-1,9.83709E-3,7.398425E-2,-7.160905E-3,-3.5257187E-2,2.5328954E-3,-1.1694344E-2,4.5942668E-2,3.7731905E-2,8.079634E-2,-2.3644162E-2,5.3770684E-2,5.9185598E-2,1.4210884E-1,8.6901315E-2,-8.61726E-3,2.306303E-2,-5.3025097E-2,1.9763976E-1,4.0956277E-2,9.22853E-2,2.3886648E-1,1.2654157E-1,3.153076E-1,-1.5202713E-2,1.3173074E-1,2.9214963E-1,1.7825563E-1,3.0540717E-1,7.412413E-2,3.4526572E-1,4.1384494E-1,6.664583E-3,4.87402E-1,6.232125E-3,1.0367109E-3,-9.549676E-4,1.9102056E-3,-2.092066E-3,-6.894528E-4,7.4227485E-3,-5.512656E-4,-7.3321244E-6,-2.5383797E-3,5.940454E-4,3.540795E-3,1.0610876E-3,2.688545E-3,1.8757674E-3,4.8529515E-3,-3.9645284E-4,-1.573894E-3,1.1670287E-3,3.6265254E-3,3.8605079E-3,-1.3854516E-3,9.745671E-3,4.7120336E-3,5.140929E-3,1.8287488E-4,1.016048E-3,-1.2518492E-3,2.4799823E-3,-1.4136701E-3,9.7288267E-4,-3.0691659E-3,1.0925806E-2,2.3314494E-3,3.7926564E-3,-1.5176139E-3,6.501119E-3,-6.8579495E-5,1.2771639E-2,5.9982114E-3,2.7124523E-4,8.22259E-3,1.6529176E-2,3.681811E-3,5.380919E-3,-2.232055E-3,4.760403E-3,1.1843311E-2,6.863394E-3,1.5049884E-2,-1.4260691E-3,1.0593484E-2,1.5737286E-2,8.64749E-4,4.137828E-3,9.898607E-4,3.3201326E-3,1.7453723E-2,6.0232123E-3,2.1234453E-2,2.4668649E-2,6.811159E-3],"categories":[],"categories_nodes":[],"categories_segments":[],"categories_sizes":[],"default_left":[0,0,0,0,0,0,0,0,0,0,0,0,0,0,0,0,0,0,0,0,0,0,0,0,0,0,0,0,0,0,0,0,0,0,0,0,0,0,0,0,0,0,0,0,0,0,0,0,0,0,0,0,0,0,0,0,0,0,0,0,0,0,0,0,0,0,0,0,0,0,0,0,0,0,0,0,0,0,0,0,0,0,0,0,0,0,0,0,0,0,0,0,0,0,0,0,0,0,0,0,0,0,0,0,0,0,0,0,0,0,0,0,0,0,0,0,0,0,0,0,0,0,0,0,0,0,0,0,0,0,0,0,0,0,0,0,0,0,0,0,0,0,0,0,0,0,0],"id":7,"left_children":[1,3,5,7,9,11,13,-1,15,17,19,21,23,25,27,29,-1,31,33,35,37,39,41,43,45,47,49,-1,51,-1,-1,53,55,57,59,61,63,65,67,69,71,73,75,-1,-1,77,-1,-1,-1,79,81,83,-1,85,87,89,91,93,95,97,99,101,103,105,107,109,111,113,115,117,119,121,123,125,127,129,131,133,135,137,139,141,143,-1,145,-1,-1,-1,-1,-1,-1,-1,-1,-1,-1,-1,-1,-1,-1,-1,-1,-1,-1,-1,-1,-1,-1,-1,-1,-1,-1,-1,-1,-1,-1,-1,-1,-1,-1,-1,-1,-1,-1,-1,-1,-1,-1,-1,-1,-1,-1,-1,-1,-1,-1,-1,-1,-1,-1,-1,-1,-1,-1,-1,-1,-1,-1],"loss_changes":[4.664158E1,2.9330492E0,3.6241837E0,1.5711784E-2,4.6597612E-1,3.397622E-1,3.1735992E-1,0E0,1.8234453E-3,1.897232E-1,1.3941577E-1,1.5351772E-1,9.95574E-2,1.959095E-1,4.802704E-3,1.11132795E-5,0E0,1.4309746E-1,8.819175E-2,5.1891237E-2,4.593631E-2,1.2550712E-1,1.6462493E-1,6.1420165E-4,2.3899794E-2,2.4126833E-3,7.93705E-2,0E0,8.010864E-3,0E0,0E0,3.2818772E-2,7.37828E-2,2.5806265E-2,1.3577238E-2,1.3187598E-2,6.0338706E-2,1.9262565E-2,1.6134921E-2,8.1455976E-2,8.2279205E-2,3.1122077E-1,1.7898704E-1,0E0,0E0,1.0270834E-2,0E0,0E0,0E0,1.5288544E-1,2.51503E-2,1.1943817E-2,0E0,4.0576495E-2,5.062376E-3,7.561016E-2,1.16386384E-1,2.571131E-2,6.7836773E-3,4.4198185E-3,7.62064E-3,3.6594877E-4,5.905507E-4,3.1897925E-2,3.9767385E-2,7.5740255E-3,2.4094062E-3,6.8515306E-3,8.464295E-3,8.726165E-3,2.7186751E-2,2.4918694E-2,6.784606E-2,2.103197E-1,1.9958138E-2,5.5423364E-2,6.1924636E-2,1.3498545E-2,6.1647743E-2,7.52728E-2,7.065162E-4,1.1595631E-1,9.200573E-2,0E0,1.0375977E-2,0E0,0E0,0E0,0E0,0E0,0E0,0E0,0E0,0E0,0E0,0E0,0E0,0E0,0E0,0E0,0E0,0E0,0E0,0E0,0E0,0E0,0E0,0E0,0E0,0E0,0E0,0E0,0E0,0E0,0E0,0E0,0E0,0E0,0E0,0E0,0E0,0E0,0E0,0E0,0E0,0E0,0E0,0E0,0E0,0E0,0E0,0E0,0E0,0E0,0E0,0E0,0E0,0E0,0E0,0E0,0E0,0E0,0E0,0E0,0E0,0E0,0E0],"parents":[2147483647,0,0,1,1,2,2,3,3,4,4,5,5,6,6,8,8,9,9,10,10,11,11,12,12,13,13,14,14,15,15,17,17,18,18,19,19,20,20,21,21,22,22,23,23,24,24,25,25,26,26,28,28,31,31,32,32,33,33,34,34,35,35,36,36,37,37,38,38,39,39,40,40,41,41,42,42,45,45,49,49,50,50,51,51,53,53,54,54,55,55,56,56,57,57,58,58,59,59,60,60,61,61,62,62,63,63,64,64,65,65,66,66,67,67,68,68,69,69,70,70,71,71,72,72,73,73,74,74,75,75,76,76,77,77,78,78,79,79,80,80,81,81,82,82,84,84],"right_children":[2,4,6,8,10,12,14,-1,16,18,20,22,24,26,28,30,-1,32,34,36,38,40,42,44,46,48,50,-1,52,-1,-1,54,56,58,60,62,64,66,68,70,72,74,76,-1,-1,78,-1,-1,-1,80,82,84,-1,86,88,90,92,94,96,98,100,102,104,106,108,110,112,114,116,118,120,122,124,126,128,130,132,134,136,138,140,142,144,-1,146,-1,-1,-1,-1,-1,-1,-1,-1,-1,-1,-1,-1,-1,-1,-1,-1,-1,-1,-1,-1,-1,-1,-1,-1,-1,-1,-1,-1,-1,-1,-1,-1,-1,-1,-1,-1,-1,-1,-1,-1,-1,-1,-1,-1,-1,-1,-1,-1,-1,-1,-1,-1,-1,-1,-1,-1,-1,-1,-1,-1,-1,-1],"split_conditions":[3.2787722E-1,8.817695E-2,5.598624E-1,3.6974248E-1,2.513814E-1,4.1492537E-1,7.4412495E-1,-4.610435E-3,6.315789E-1,4.152312E-1,2.2484134E-1,4.464286E-3,3.3246085E-1,1.8208955E-1,6.6E-1,5.1012146E-1,-2.0479478E-3,1.7497733E-1,4.119403E-1,7.4404763E-4,5.952381E-3,3.7468353E-1,8.926237E-1,2.5101215E-1,9.182787E-1,8.5020244E-1,4.358209E-1,9.741139E-3,2.1849501E-1,-1.9729882E-4,3.4667553E-6,5.098621E-1,6.666667E-1,1.3253683E-1,4.8656717E-1,6.212121E-1,2.3283581E-1,2.80597E-1,3.5880855E-1,9.317216E-1,2.5373134E-1,8.290278E-1,7.864193E-1,3.594498E-3,8.183319E-4,7.8324497E-1,2.6376743E-3,-4.0290115E-4,2.2820046E-3,2.0398912E-1,9.975E-1,4.44243E-2,9.83709E-3,5.6292975E-1,4.5051083E-1,3.708069E-1,9.381258E-1,3.181818E-1,9.2024803E-1,1.1570637E-1,4.3773657E-1,1.3452871E-1,2.672065E-1,2.1492538E-1,9.1047925E-1,7.19697E-1,2.9374433E-1,5.951417E-1,2.3028105E-1,6.372722E-1,7.475E-1,3.5617685E-1,4.6371236E-1,3.5070485E-1,9.975E-1,1.06980965E-1,8.764311E-1,8.3408885E-2,3.4817815E-1,6.7463577E-1,2.3572077E-1,4.1662577E-1,3.0364373E-1,6.664583E-3,7.121212E-1,6.232125E-3,1.0367109E-3,-9.549676E-4,1.9102056E-3,-2.092066E-3,-6.894528E-4,7.4227485E-3,-5.512656E-4,-7.3321244E-6,-2.5383797E-3,5.940454E-4,3.540795E-3,1.0610876E-3,2.688545E-3,1.8757674E-3,4.8529515E-3,-3.9645284E-4,-1.573894E-3,1.1670287E-3,3.6265254E-3,3.8605079E-3,-1.3854516E-3,9.745671E-3,4.7120336E-3,5.140929E-3,1.8287488E-4,1.016048E-3,-1.2518492E-3,2.4799823E-3,-1.4136701E-3,9.7288267E-4,-3.0691659E-3,1.0925806E-2,2.3314494E-3,3.7926564E-3,-1.5176139E-3,6.501119E-3,-6.8579495E-5,1.2771639E-2,5.9982114E-3,2.7124523E-4,8.22259E-3,1.6529176E-2,3.681811E-3,5.380919E-3,-2.232055E-3,4.760403E-3,1.1843311E-2,6.863394E-3,1.5049884E-2,-1.4260691E-3,1.0593484E-2,1.5737286E-2,8.64749E-4,4.137828E-3,9.898607E-4,3.3201326E-3,1.7453723E-2,6.0232123E-3,2.1234453E-2,2.4668649E-2,6.811159E-3],"split_indices":[11,11,11,10,11,8,11,0,0,1,1,7,12,8,2,0,0,1,8,7,7,11,6,0,9,0,8,0,1,0,0,4,5,11,8,5,8,8,3,6,8,6,9,0,0,4,0,0,0,1,2,1,0,10,12,1,6,5,6,11,10,3,0,8,6,5,1,0,1,3,2,12,12,12,2,1,9,1,0,11,1,10,0,0,5,0,0,0,0,0,0,0,0,0,0,0,0,0,0,0,0,0,0,0,0,0,0,0,0,0,0,0,0,0,0,0,0,0,0,0,0,0,0,0,0,0,0,0,0,0,0,0,0,0,0,0,0,0,0,0,0,0,0,0,0,0,0],"split_type":[0,0,0,0,0,0,0,0,0,0,0,0,0,0,0,0,0,0,0,0,0,0,0,0,0,0,0,0,0,0,0,0,0,0,0,0,0,0,0,0,0,0,0,0,0,0,0,0,0,0,0,0,0,0,0,0,0,0,0,0,0,0,0,0,0,0,0,0,0,0,0,0,0,0,0,0,0,0,0,0,0,0,0,0,0,0,0,0,0,0,0,0,0,0,0,0,0,0,0,0,0,0,0,0,0,0,0,0,0,0,0,0,0,0,0,0,0,0,0,0,0,0,0,0,0,0,0,0,0,0,0,0,0,0,0,0,0,0,0,0,0,0,0,0,0,0,0],"sum_hessian":[2.546E3,2.087E3,4.59E2,1.302E3,7.85E2,2.09E2,2.5E2,1.297E3,5E0,7.16E2,6.9E1,1.59E2,5E1,2.09E2,4.1E1,2E0,3E0,6.17E2,9.9E1,4.7E1,2.2E1,6.9E1,9E1,3E0,4.7E1,2E0,2.07E2,2E0,3.9E1,1E0,1E0,2.2E1,5.95E2,6.4E1,3.5E1,7E0,4E1,8E0,1.4E1,1.4E1,5.5E1,5.6E1,3.4E1,2E0,1E0,4.6E1,1E0,1E0,1E0,3.3E1,1.74E2,3.7E1,2E0,1.5E1,7E0,5.38E2,5.7E1,5.6E1,8E0,2E1,1.5E1,4E0,3E0,1.8E1,2.2E1,5E0,3E0,3E0,1.1E1,5E0,9E0,6E0,4.9E1,4.5E1,1.1E1,1.3E1,2.1E1,3.9E1,7E0,2.9E1,4E0,1.3E2,4.4E1,1E0,3.6E1,7E0,8E0,6E0,1E0,4.11E2,1.27E2,4E0,5.3E1,4.4E1,1.2E1,4E0,4E0,1.1E1,9E0,5E0,1E1,2E0,2E0,2E0,1E0,1.5E1,3E0,9E0,1.3E1,4E0,1E0,1E0,2E0,2E0,1E0,1E0,1E1,4E0,1E0,6E0,3E0,4E0,2E0,4.2E1,7E0,1.1E1,3.4E1,1E1,1E0,2E0,1.1E1,1.7E1,4E0,3E0,3.6E1,1E0,6E0,2.8E1,1E0,3E0,1E0,2E0,1.28E2,2E0,4.2E1,3.5E1,1E0],"tree_param":{"num_deleted":"0","num_feature":"13","num_nodes":"147","size_leaf_vector":"1"}},{"base_weights":[6.9609453E-4,-5.9730075E-2,2.7497685E-1,-8.739249E-2,-1.3796421E-2,1.7706332E-1,3.489528E-1,-4.380091E-3,-2.754191E-2,-2.1030605E-2,6.0499378E-2,1.3474102E-1,2.1046573E-1,2.4118574E-1,3.656769E-1,-2.519821E-3,-1.9711498E-3,-2.723532E-2,1.7524844E-2,8.738531E-2,-6.395664E-3,1.9600657E-1,1.1236641E-1,2.2322816E-1,1.9841168E-2,3.0036086E-1,1.6620216E-1,3.3885437E-1,4.2475423E-1,-1.9236654E-4,3.3799558E-6,4.6885297E-2,-3.0049983E-2,-3.6746124E-3,5.5314843E-2,1.6734949E-1,7.26777E-2,5.1964432E-2,-4.6306834E-2,2.4198857E-1,1.120311E-1,8.724541E-2,1.7388244E-1,3.0323852E-2,2.3071598E-1,5.1686965E-2,-2.4926374E-2,3.143943E-1,8.4313046E-4,2.2158606E-1,6.2351048E-2,3.429021E-1,9.6279845E-2,4.3521902E-1,1.5374538E-1,7.0739344E-2,-6.683453E-3,-3.377315E-2,2.5620365E-3,-3.535364E-2,8.281576E-3,3.602387E-2,7.717706E-2,1.1655393E-2,5.975373E-2,5.860517E-2,1.3868892E-1,1.00387335E-2,5.0930935E-3,1.8152533E-2,-5.967695E-2,5.7837736E-2,1.3393029E-2,1.2217857E-2,8.826847E-3,6.653365E-2,1.765077E-1,2.298014E-1,6.826868E-2,-3.181395E-3,6.971876E-2,3.244774E-2,2.3872255E-1,2.9444937E-3,5.7188346E-4,-1.812898E-3,2.2670963E-4,1.663286E-2,5.3053307E-3,1.1303704E-1,1.5564779E-2,8.117183E-2,3.9257878E-3,6.418923E-2,3.4610492E-1,-2.2444127E-3,7.9149315E-3,4.4077298E-1,2.2718594E-3,9.011749E-3,1.8569141E-3,5.95947E-3,9.906351E-4,-9.140403E-4,1.8624504E-3,-2.0332048E-3,-4.671041E-4,-1.008186E-3,4.488586E-3,-7.159474E-4,-2.5374747E-3,2.980627E-3,4.6326106E-5,9.435578E-4,2.4950842E-3,1.5265117E-3,4.509091E-3,3.7383947E-3,3.6778077E-4,4.7574504E-3,1.0479136E-3,-8.7648135E-4,1.0234113E-2,-1.3161177E-3,1.1287711E-3,-1.0802889E-3,2.441729E-3,-3.114253E-3,-8.398954E-4,8.519892E-4,3.485841E-3,-5.879252E-4,1.60608E-3,4.2804205E-3,-2.4869505E-4,1.2813893E-2,6.362777E-4,1.291277E-2,5.41648E-3,6.0403845E-3,-7.2361267E-4,4.2535905E-3,5.914908E-4,5.8619017E-3,-3.157923E-3,5.712056E-3,1.2521065E-2,6.07607E-3,1.5532732E-3,4.4842646E-3,9.6511433E-4,6.872628E-4,-3.928287E-4,6.768863E-3,-1.9546708E-3,1.7544413E-2,6.6692247E-3,1.7622799E-2,2.38706E-2],"categories":[],"categories_nodes":[],"categories_segments":[],"categories_sizes":[],"default_left":[0,0,0,0,0,0,0,0,0,0,0,0,0,0,0,0,0,0,0,0,0,0,0,0,0,0,0,0,0,0,0,0,0,0,0,0,0,0,0,0,0,0,0,0,0,0,0,0,0,0,0,0,0,0,0,0,0,0,0,0,0,0,0,0,0,0,0,0,0,0,0,0,0,0,0,0,0,0,0,0,0,0,0,0,0,0,0,0,0,0,0,0,0,0,0,0,0,0,0,0,0,0,0,0,0,0,0,0,0,0,0,0,0,0,0,0,0,0,0,0,0,0,0,0,0,0,0,0,0,0,0,0,0,0,0,0,0,0,0,0,0,0,0,0,0,0,0,0,0,0,0,0,0,0,0,0,0,0,0],"id":8,"left_children":[1,3,5,7,9,11,13,-1,15,17,19,21,23,25,27,29,-1,31,33,35,37,39,41,43,45,47,49,51,53,-1,-1,55,57,59,61,63,65,67,69,71,73,75,77,79,81,83,85,87,-1,89,91,93,95,97,99,101,103,105,107,109,111,113,115,-1,117,119,121,123,-1,125,127,129,-1,131,-1,133,135,137,139,-1,141,143,145,-1,-1,-1,-1,-1,-1,147,-1,149,151,153,155,-1,-1,157,-1,-1,-1,-1,-1,-1,-1,-1,-1,-1,-1,-1,-1,-1,-1,-1,-1,-1,-1,-1,-1,-1,-1,-1,-1,-1,-1,-1,-1,-1,-1,-1,-1,-1,-1,-1,-1,-1,-1,-1,-1,-1,-1,-1,-1,-1,-1,-1,-1,-1,-1,-1,-1,-1,-1,-1,-1,-1,-1,-1,-1],"loss_changes":[4.222972E1,2.6518826E0,3.270111E0,1.3911247E-2,4.2372334E-1,2.5437498E-1,3.8220215E-1,0E0,1.6843993E-3,1.7200205E-1,1.2645638E-1,1.0271764E-1,2.6318264E-1,1.1869168E-1,2.1102142E-1,1.0564552E-5,0E0,1.3033888E-1,8.0316E-2,4.66415E-2,5.131992E-2,6.1701E-2,9.14582E-2,1.4178038E-1,1.2693632E-2,7.4267626E-2,9.546578E-2,1.23104095E-1,1.2026596E-1,0E0,0E0,2.9862903E-2,7.24529E-2,2.491221E-2,1.2402549E-2,3.559819E-2,3.2745704E-2,1.7805299E-2,1.2287067E-2,5.1208436E-2,6.222847E-2,8.254406E-2,9.652227E-2,2.2942163E-2,1.494112E-1,7.759966E-4,1.4997402E-3,3.697753E-2,0E0,8.166659E-2,8.478211E-3,1.17040634E-1,4.2126037E-2,1.1635685E-1,5.6618825E-3,3.7116908E-2,4.7569433E-3,8.9689076E-2,1.24688305E-1,5.1025674E-3,1.8066786E-2,4.057184E-3,6.952822E-3,0E0,2.5968915E-3,5.0284788E-2,7.57537E-2,3.329324E-3,0E0,4.7147074E-3,1.839064E-4,2.659671E-4,0E0,2.7637985E-3,0E0,5.9077352E-2,1.1432305E-1,1.3499558E-2,3.652538E-2,0E0,2.548702E-3,4.793696E-2,1.0973787E-1,0E0,0E0,0E0,0E0,0E0,0E0,1.0932088E-3,0E0,1.4292076E-3,4.550802E-4,2.7349822E-2,1.0989189E-1,0E0,0E0,3.2356262E-2,0E0,0E0,0E0,0E0,0E0,0E0,0E0,0E0,0E0,0E0,0E0,0E0,0E0,0E0,0E0,0E0,0E0,0E0,0E0,0E0,0E0,0E0,0E0,0E0,0E0,0E0,0E0,0E0,0E0,0E0,0E0,0E0,0E0,0E0,0E0,0E0,0E0,0E0,0E0,0E0,0E0,0E0,0E0,0E0,0E0,0E0,0E0,0E0,0E0,0E0,0E0,0E0,0E0,0E0,0E0,0E0,0E0,0E0,0E0,0E0,0E0],"parents":[2147483647,0,0,1,1,2,2,3,3,4,4,5,5,6,6,8,8,9,9,10,10,11,11,12,12,13,13,14,14,15,15,17,17,18,18,19,19,20,20,21,21,22,22,23,23,24,24,25,25,26,26,27,27,28,28,31,31,32,32,33,33,34,34,35,35,36,36,37,37,38,38,39,39,40,40,41,41,42,42,43,43,44,44,45,45,46,46,47,47,49,49,50,50,51,51,52,52,53,53,54,54,55,55,56,56,57,57,58,58,59,59,60,60,61,61,62,62,64,64,65,65,66,66,67,67,69,69,70,70,71,71,73,73,75,75,76,76,77,77,78,78,80,80,81,81,82,82,89,89,91,91,92,92,93,93,94,94,97,97],"right_children":[2,4,6,8,10,12,14,-1,16,18,20,22,24,26,28,30,-1,32,34,36,38,40,42,44,46,48,50,52,54,-1,-1,56,58,60,62,64,66,68,70,72,74,76,78,80,82,84,86,88,-1,90,92,94,96,98,100,102,104,106,108,110,112,114,116,-1,118,120,122,124,-1,126,128,130,-1,132,-1,134,136,138,140,-1,142,144,146,-1,-1,-1,-1,-1,-1,148,-1,150,152,154,156,-1,-1,158,-1,-1,-1,-1,-1,-1,-1,-1,-1,-1,-1,-1,-1,-1,-1,-1,-1,-1,-1,-1,-1,-1,-1,-1,-1,-1,-1,-1,-1,-1,-1,-1,-1,-1,-1,-1,-1,-1,-1,-1,-1,-1,-1,-1,-1,-1,-1,-1,-1,-1,-1,-1,-1,-1,-1,-1,-1,-1,-1,-1,-1],"split_conditions":[3.2787722E-1,8.817695E-2,5.5034083E-1,3.6974248E-1,2.513814E-1,4.253602E-1,4.2686567E-1,-4.380091E-3,6.315789E-1,4.152312E-1,2.3028105E-1,7.6270837E-1,8.7053575E-2,5.020243E-1,9.975E-1,5.1012146E-1,-1.9711498E-3,1.7497733E-1,4.119403E-1,4.3E-1,5.952381E-3,4.9511248E-1,7.8326476E-1,1.7313433E-1,5.819724E-1,6.7463577E-1,5.5714613E-1,6.994048E-2,7.121212E-1,-1.9236654E-4,3.3799558E-6,5.098621E-1,1.7871739E-1,2.925373E-1,4.8656717E-1,9.1047925E-1,9.8E-1,4.0192664E-1,7.725E-1,7.524932E-2,1.9126004E-1,2.1486855E-1,9.5530826E-1,5.991903E-1,2.98294E-1,1.2148686E-1,1.9401632E-1,4.2089552E-1,8.4313046E-4,6.9480383E-1,3.2738097E-2,4.1662577E-1,1.2148686E-1,6.792331E-1,2.7125505E-1,5.6292975E-1,4.5051083E-1,4E-1,4.2859954E-1,4.238893E-1,4.1885766E-1,1.1386705E-1,2.3484848E-1,1.1655393E-2,3.375E-1,4.9416754E-1,7.4404763E-4,3.562753E-1,5.0930935E-3,5.7894737E-1,7.2469634E-1,6.882591E-1,1.3393029E-2,7.2469634E-1,8.826847E-3,7.206545E-1,9.317216E-1,2.3028105E-1,1.7860381E-1,-3.181395E-3,7.327935E-1,3.6437246E-1,4.761153E-1,2.9444937E-3,5.7188346E-4,-1.812898E-3,2.2670963E-4,1.663286E-2,5.3053307E-3,1.6409792E-1,1.5564779E-2,2.3572077E-1,5.8704454E-1,4.0890688E-1,6.7611337E-1,-2.2444127E-3,7.9149315E-3,5.283582E-1,2.2718594E-3,9.011749E-3,1.8569141E-3,5.95947E-3,9.906351E-4,-9.140403E-4,1.8624504E-3,-2.0332048E-3,-4.671041E-4,-1.008186E-3,4.488586E-3,-7.159474E-4,-2.5374747E-3,2.980627E-3,4.6326106E-5,9.435578E-4,2.4950842E-3,1.5265117E-3,4.509091E-3,3.7383947E-3,3.6778077E-4,4.7574504E-3,1.0479136E-3,-8.7648135E-4,1.0234113E-2,-1.3161177E-3,1.1287711E-3,-1.0802889E-3,2.441729E-3,-3.114253E-3,-8.398954E-4,8.519892E-4,3.485841E-3,-5.879252E-4,1.60608E-3,4.2804205E-3,-2.4869505E-4,1.2813893E-2,6.362777E-4,1.291277E-2,5.41648E-3,6.0403845E-3,-7.2361267E-4,4.2535905E-3,5.914908E-4,5.8619017E-3,-3.157923E-3,5.712056E-3,1.2521065E-2,6.07607E-3,1.5532732E-3,4.4842646E-3,9.6511433E-4,6.872628E-4,-3.928287E-4,6.768863E-3,-1.9546708E-3,1.7544413E-2,6.6692247E-3,1.7622799E-2,2.38706E-2],"split_indices":[11,11,11,10,11,11,8,0,0,1,1,6,7,0,2,0,0,1,8,2,7,10,3,8,4,11,10,7,5,0,0,4,11,8,8,6,2,12,2,1,3,1,6,0,12,1,1,8,0,4,7,10,1,10,0,10,12,8,12,10,1,11,5,0,2,4,7,0,0,0,0,0,0,0,0,3,6,1,1,0,0,0,9,0,0,0,0,0,0,1,0,1,0,0,0,0,0,8,0,0,0,0,0,0,0,0,0,0,0,0,0,0,0,0,0,0,0,0,0,0,0,0,0,0,0,0,0,0,0,0,0,0,0,0,0,0,0,0,0,0,0,0,0,0,0,0,0,0,0,0,0,0,0,0,0,0,0,0,0],"split_type":[0,0,0,0,0,0,0,0,0,0,0,0,0,0,0,0,0,0,0,0,0,0,0,0,0,0,0,0,0,0,0,0,0,0,0,0,0,0,0,0,0,0,0,0,0,0,0,0,0,0,0,0,0,0,0,0,0,0,0,0,0,0,0,0,0,0,0,0,0,0,0,0,0,0,0,0,0,0,0,0,0,0,0,0,0,0,0,0,0,0,0,0,0,0,0,0,0,0,0,0,0,0,0,0,0,0,0,0,0,0,0,0,0,0,0,0,0,0,0,0,0,0,0,0,0,0,0,0,0,0,0,0,0,0,0,0,0,0,0,0,0,0,0,0,0,0,0,0,0,0,0,0,0,0,0,0,0,0,0],"sum_hessian":[2.546E3,2.087E3,4.59E2,1.302E3,7.85E2,1.99E2,2.6E2,1.297E3,5E0,7.16E2,6.9E1,9E1,1.09E2,3.7E1,2.23E2,2E0,3E0,6.17E2,9.9E1,4.9E1,2E1,2.2E1,6.8E1,1.02E2,7E0,1.9E1,1.8E1,1.58E2,6.5E1,1E0,1E0,2.2E1,5.95E2,6.4E1,3.5E1,6E0,4.3E1,8E0,1.2E1,1.3E1,9E0,5E1,1.8E1,4E0,9.8E1,4E0,3E0,1.8E1,1E0,1.1E1,7E0,1.55E2,3E0,6.2E1,3E0,1.5E1,7E0,5.34E2,6.1E1,1.7E1,4.7E1,2E1,1.5E1,3E0,3E0,3.7E1,6E0,5E0,3E0,2E0,1E1,2E0,1.1E1,4E0,5E0,4.2E1,8E0,1.1E1,7E0,1E0,3E0,4E0,9.4E1,3E0,1E0,2E0,1E0,1.6E1,2E0,6E0,5E0,5E0,2E0,2E0,1.53E2,1E0,2E0,6.1E1,1E0,2E0,1E0,7E0,8E0,6E0,1E0,4.16E2,1.18E2,4.9E1,1.2E1,8E0,9E0,5E0,4.2E1,1E1,1E1,4E0,1.1E1,2E0,1E0,1.8E1,1.9E1,2E0,4E0,1E0,4E0,1E0,1E0,9E0,1E0,1E0,1E0,2E0,2E0,3.3E1,9E0,5E0,3E0,8E0,3E0,4E0,3E0,2E0,1E0,2E0,2E0,9E0,8.5E1,5E0,1E0,4E0,1E0,1E0,1E0,1E0,1E0,1.49E2,4E0,2.1E1,4E1],"tree_param":{"num_deleted":"0","num_feature":"13","num_nodes":"159","size_leaf_vector":"1"}},{"base_weights":[7.708745E-4,-5.67221E-2,2.6173732E-1,-8.302788E-2,-1.3041251E-2,1.5506771E-1,3.2315347E-1,-4.161255E-3,-2.6524834E-2,-1.9953793E-2,5.7949234E-2,1.1000572E-1,1.7292683E-1,2.4378932E-1,3.476583E-1,-2.456824E-3,-1.8972317E-3,-2.4051486E-2,3.291192E-2,8.363453E-2,-5.9657386E-3,1.2018728E-1,-7.702084E-3,1.9216348E-1,9.598803E-2,1.7966634E-1,2.8531367E-1,3.207126E-1,4.1115364E-1,-1.8755719E-4,3.295392E-6,4.4884447E-2,-2.6476137E-2,5.2847717E-2,9.663268E-4,1.6123366E-1,6.9388434E-2,4.991129E-2,-4.4190932E-2,7.9608075E-2,1.5906958E-1,3.717738E-3,-4.6804987E-2,2.2899923E-1,1.6121022E-1,-3.0113108E-2,1.4403124E-1,2.1120738E-2,2.2502878E-1,2.9670623E-1,1.9154011E-3,3.2642916E-1,7.935593E-2,4.1644135E-1,2.215063E-3,-6.9012167E-3,6.7972004E-2,-3.3119448E-2,-8.622791E-3,3.251653E-2,8.402332E-2,2.2170333E-2,-2.9769052E-2,1.1218316E-2,5.7792593E-2,5.582769E-2,1.3309127E-1,8.052074E-2,-8.480709E-3,1.7698718E-2,-5.7052568E-2,2.950293E-2,1.3143007E-1,1.7193976E-1,-3.10186E-3,-2.8177584E-3,-4.5386105E-4,-5.2795513E-3,2.4000375E-1,2.10859E-1,1.18935816E-1,1.8606894E-3,-5.8757704E-2,2.0004414E-1,1.9431392E-2,-4.7515765E-2,3.5902895E-3,2.406995E-1,1.7550288E-3,2.155538E-3,1.5105165E-2,6.2584504E-2,3.2946905E-1,7.6511004E-3,-2.0762121E-2,3.4792605E-1,4.6061745E-1,-9.131807E-4,1.815889E-3,5.728782E-3,3.523207E-4,-1.9144543E-3,2.0869118E-4,-1.080234E-3,1.322284E-3,-1.2184799E-3,2.3667505E-3,1.5552558E-3,4.5748223E-3,-2.5323898E-4,1.741879E-3,7.086117E-5,-2.2799196E-3,3.6137819E-3,3.585864E-4,3.918614E-3,2.2503362E-5,-8.4726524E-4,9.824748E-3,4.771211E-3,1.5008338E-4,9.624273E-4,-1.2069988E-3,-1.0532817E-3,2.3806856E-3,-2.9741118E-3,-8.1889797E-4,2.748174E-3,-6.802522E-4,-1.4838459E-3,7.438704E-3,1.1127718E-2,5.054648E-3,1.2945537E-2,5.6941765E-3,1.211322E-2,2.1532837E-3,4.484996E-3,1.1533734E-2,-8.194588E-4,-3.1976786E-3,5.5298894E-3,1.210617E-2,2.396724E-3,-6.9647713E-4,-2.9123789E-3,-3.830081E-4,2.608703E-3,1.2847167E-2,6.599642E-3,-1.9058038E-3,1.6555076E-2,2.0333135E-3,-2.1883023E-3,6.3114316E-4,1.7926944E-2,1.5344799E-3,5.014299E-3,2.3424882E-2],"categories":[],"categories_nodes":[],"categories_segments":[],"categories_sizes":[],"default_left":[0,0,0,0,0,0,0,0,0,0,0,0,0,0,0,0,0,0,0,0,0,0,0,0,0,0,0,0,0,0,0,0,0,0,0,0,0,0,0,0,0,0,0,0,0,0,0,0,0,0,0,0,0,0,0,0,0,0,0,0,0,0,0,0,0,0,0,0,0,0,0,0,0,0,0,0,0,0,0,0,0,0,0,0,0,0,0,0,0,0,0,0,0,0,0,0,0,0,0,0,0,0,0,0,0,0,0,0,0,0,0,0,0,0,0,0,0,0,0,0,0,0,0,0,0,0,0,0,0,0,0,0,0,0,0,0,0,0,0,0,0,0,0,0,0,0,0,0,0,0,0,0,0,0,0,0,0,0,0],"id":9,"left_children":[1,3,5,7,9,11,13,-1,15,17,19,21,23,25,27,29,-1,31,33,35,37,39,41,43,45,47,49,51,53,-1,-1,55,57,59,61,63,65,67,69,71,73,-1,75,77,79,81,83,85,87,89,-1,91,93,95,-1,97,99,101,103,105,107,109,111,-1,113,115,117,119,121,123,125,127,129,131,-1,-1,-1,-1,133,135,137,-1,139,141,143,145,-1,147,-1,-1,-1,149,151,-1,153,155,157,-1,-1,-1,-1,-1,-1,-1,-1,-1,-1,-1,-1,-1,-1,-1,-1,-1,-1,-1,-1,-1,-1,-1,-1,-1,-1,-1,-1,-1,-1,-1,-1,-1,-1,-1,-1,-1,-1,-1,-1,-1,-1,-1,-1,-1,-1,-1,-1,-1,-1,-1,-1,-1,-1,-1,-1,-1,-1,-1,-1,-1,-1],"loss_changes":[3.8229366E1,2.3981514E0,2.963457E0,1.2311935E-2,3.868659E-1,1.1778784E-1,4.811821E-1,0E0,1.5558884E-3,1.5611342E-1,1.1541623E-1,6.2046528E-2,1.591599E-1,1.4045095E-1,2.4453926E-1,1.0042895E-5,0E0,1.1250734E-1,3.30657E-2,4.4086486E-2,4.705974E-2,6.1493993E-2,1.9523475E-2,7.140064E-2,1.618531E-1,2.1819961E-1,1.0682297E-1,1.9347572E-1,1.0181999E-1,0E0,0E0,2.7967993E-2,7.609621E-2,1.7550632E-2,1.4345966E-2,3.274685E-2,3.0579582E-2,1.6768996E-2,1.1357788E-2,6.103614E-2,7.61174E-2,0E0,9.296797E-4,1.7630434E-1,9.035933E-2,1.7615011E-2,1.2871769E-1,3.1242667E-2,6.298292E-2,4.1722536E-2,0E0,1.0369873E-1,4.0053587E-2,2.4370193E-2,0E0,4.591865E-3,4.4622302E-2,9.057957E-2,8.069623E-2,1.885582E-2,1.8995702E-3,4.661365E-3,4.5075472E-3,0E0,2.414235E-3,4.740642E-2,6.991978E-2,6.6453926E-3,2.2015385E-3,4.481919E-3,1.1288375E-4,1.611352E-2,3.794603E-2,5.6390703E-2,0E0,0E0,0E0,0E0,6.589675E-2,1.1603749E-1,8.3845615E-2,0E0,2.7270243E-4,2.215153E-2,7.323933E-3,1.2647053E-3,0E0,5.3966522E-2,0E0,0E0,0E0,2.5999427E-2,5.8670044E-2,0E0,2.8564096E-3,8.3266735E-2,4.955864E-2,0E0,0E0,0E0,0E0,0E0,0E0,0E0,0E0,0E0,0E0,0E0,0E0,0E0,0E0,0E0,0E0,0E0,0E0,0E0,0E0,0E0,0E0,0E0,0E0,0E0,0E0,0E0,0E0,0E0,0E0,0E0,0E0,0E0,0E0,0E0,0E0,0E0,0E0,0E0,0E0,0E0,0E0,0E0,0E0,0E0,0E0,0E0,0E0,0E0,0E0,0E0,0E0,0E0,0E0,0E0,0E0,0E0,0E0,0E0,0E0,0E0,0E0],"parents":[2147483647,0,0,1,1,2,2,3,3,4,4,5,5,6,6,8,8,9,9,10,10,11,11,12,12,13,13,14,14,15,15,17,17,18,18,19,19,20,20,21,21,22,22,23,23,24,24,25,25,26,26,27,27,28,28,31,31,32,32,33,33,34,34,35,35,36,36,37,37,38,38,39,39,40,40,42,42,43,43,44,44,45,45,46,46,47,47,48,48,49,49,51,51,52,52,53,53,55,55,56,56,57,57,58,58,59,59,60,60,61,61,62,62,64,64,65,65,66,66,67,67,68,68,69,69,70,70,71,71,72,72,73,73,78,78,79,79,80,80,82,82,83,83,84,84,85,85,87,87,91,91,92,92,94,94,95,95,96,96],"right_children":[2,4,6,8,10,12,14,-1,16,18,20,22,24,26,28,30,-1,32,34,36,38,40,42,44,46,48,50,52,54,-1,-1,56,58,60,62,64,66,68,70,72,74,-1,76,78,80,82,84,86,88,90,-1,92,94,96,-1,98,100,102,104,106,108,110,112,-1,114,116,118,120,122,124,126,128,130,132,-1,-1,-1,-1,134,136,138,-1,140,142,144,146,-1,148,-1,-1,-1,150,152,-1,154,156,158,-1,-1,-1,-1,-1,-1,-1,-1,-1,-1,-1,-1,-1,-1,-1,-1,-1,-1,-1,-1,-1,-1,-1,-1,-1,-1,-1,-1,-1,-1,-1,-1,-1,-1,-1,-1,-1,-1,-1,-1,-1,-1,-1,-1,-1,-1,-1,-1,-1,-1,-1,-1,-1,-1,-1,-1,-1,-1,-1,-1,-1,-1],"split_conditions":[3.2787722E-1,8.817695E-2,5.263251E-1,3.6974248E-1,2.513814E-1,2.6567164E-1,4.5074627E-1,-4.161255E-3,6.315789E-1,4.4786945E-1,2.3028105E-1,2.5671643E-1,9.472416E-1,3.5758975E-1,9.975E-1,5.1012146E-1,-1.8972317E-3,1.7497733E-1,3.7448996E-1,4.3E-1,5.952381E-3,7.497039E-1,3.1578946E-1,4.464286E-3,7.974734E-1,4.6969697E-1,2.330009E-1,5.580357E-2,6.792331E-1,-1.8755719E-4,3.295392E-6,2.3283581E-1,3.708069E-1,4.4477612E-1,8.826009E-1,9.1047925E-1,9.8E-1,2.80597E-1,7.725E-1,1.5231188E-1,7.7412516E-1,3.717738E-3,4.6153846E-1,4.6861428E-1,4.848485E-1,4.7368422E-1,7.0454544E-1,3.1800002E-1,6.7463577E-1,5.35E-1,1.9154011E-3,4.1662577E-1,7.26594E-1,5.9402984E-1,2.215063E-3,4.5051083E-1,5.7734907E-1,6.666667E-1,4.0597016E-1,1.0671577E-1,2.0242915E-1,3.8407502E-1,4.1440296E-1,1.1218316E-2,3.375E-1,8.175E-1,7.4404763E-4,7.19697E-1,2.9374433E-1,5.7894737E-1,7.2469634E-1,1.2148686E-1,3.7246963E-1,9.2763907E-1,-3.10186E-3,-2.8177584E-3,-4.5386105E-4,-5.2795513E-3,5.086334E-1,1E0,5.847903E-1,1.8606894E-3,1.7860381E-1,3.6437246E-1,1.6591115E-1,6.8421054E-1,3.5902895E-3,5.44363E-1,1.7550288E-3,2.155538E-3,1.5105165E-2,4.0890688E-1,9.3807E-1,7.6511004E-3,6.437247E-1,5.850746E-1,4.3674752E-1,-9.131807E-4,1.815889E-3,5.728782E-3,3.523207E-4,-1.9144543E-3,2.0869118E-4,-1.080234E-3,1.322284E-3,-1.2184799E-3,2.3667505E-3,1.5552558E-3,4.5748223E-3,-2.5323898E-4,1.741879E-3,7.086117E-5,-2.2799196E-3,3.6137819E-3,3.585864E-4,3.918614E-3,2.2503362E-5,-8.4726524E-4,9.824748E-3,4.771211E-3,1.5008338E-4,9.624273E-4,-1.2069988E-3,-1.0532817E-3,2.3806856E-3,-2.9741118E-3,-8.1889797E-4,2.748174E-3,-6.802522E-4,-1.4838459E-3,7.438704E-3,1.1127718E-2,5.054648E-3,1.2945537E-2,5.6941765E-3,1.211322E-2,2.1532837E-3,4.484996E-3,1.1533734E-2,-8.194588E-4,-3.1976786E-3,5.5298894E-3,1.210617E-2,2.396724E-3,-6.9647713E-4,-2.9123789E-3,-3.830081E-4,2.608703E-3,1.2847167E-2,6.599642E-3,-1.9058038E-3,1.6555076E-2,2.0333135E-3,-2.1883023E-3,6.3114316E-4,1.7926944E-2,1.5344799E-3,5.014299E-3,2.3424882E-2],"split_indices":[11,11,11,10,11,8,8,0,0,1,1,8,6,12,2,0,0,1,12,2,7,9,0,7,9,5,1,7,10,0,0,8,1,8,6,6,2,8,2,1,4,0,0,9,5,0,5,12,11,2,0,10,6,8,0,12,10,5,8,11,0,12,10,0,2,2,7,5,1,0,0,1,0,6,0,0,0,0,12,2,10,0,1,0,1,0,0,11,0,0,0,0,4,0,0,8,10,0,0,0,0,0,0,0,0,0,0,0,0,0,0,0,0,0,0,0,0,0,0,0,0,0,0,0,0,0,0,0,0,0,0,0,0,0,0,0,0,0,0,0,0,0,0,0,0,0,0,0,0,0,0,0,0,0,0,0,0,0,0],"split_type":[0,0,0,0,0,0,0,0,0,0,0,0,0,0,0,0,0,0,0,0,0,0,0,0,0,0,0,0,0,0,0,0,0,0,0,0,0,0,0,0,0,0,0,0,0,0,0,0,0,0,0,0,0,0,0,0,0,0,0,0,0,0,0,0,0,0,0,0,0,0,0,0,0,0,0,0,0,0,0,0,0,0,0,0,0,0,0,0,0,0,0,0,0,0,0,0,0,0,0,0,0,0,0,0,0,0,0,0,0,0,0,0,0,0,0,0,0,0,0,0,0,0,0,0,0,0,0,0,0,0,0,0,0,0,0,0,0,0,0,0,0,0,0,0,0,0,0,0,0,0,0,0,0,0,0,0,0,0,0],"sum_hessian":[2.546E3,2.087E3,4.59E2,1.302E3,7.85E2,1.69E2,2.9E2,1.297E3,5E0,7.16E2,6.9E1,5E1,1.19E2,7.1E1,2.19E2,2E0,3E0,6.65E2,5.1E1,4.9E1,2E1,4.6E1,4E0,9.4E1,2.5E1,3E1,4.1E1,1.58E2,6.1E1,1E0,1E0,2.2E1,6.43E2,3.1E1,2E1,6E0,4.3E1,8E0,1.2E1,2.4E1,2.2E1,1E0,3E0,4E1,5.4E1,7E0,1.8E1,7E0,2.3E1,3.9E1,2E0,1.54E2,4E0,6E1,1E0,7E0,1.5E1,4.68E2,1.75E2,2E1,1.1E1,1.2E1,8E0,3E0,3E0,3.7E1,6E0,5E0,3E0,2E0,1E1,1.3E1,1.1E1,2.1E1,1E0,2E0,1E0,1E0,3.9E1,2.3E1,3.1E1,2E0,5E0,1.2E1,6E0,3E0,4E0,2.1E1,2E0,1E0,3.8E1,2E0,1.52E2,2E0,2E0,2.7E1,3.3E1,6E0,1E0,8E0,7E0,4.11E2,5.7E1,1.28E2,4.7E1,4E0,1.6E1,2E0,9E0,4E0,8E0,3E0,5E0,2E0,1E0,2.6E1,1.1E1,2E0,4E0,4E0,1E0,1E0,2E0,1E0,1E0,9E0,1E0,8E0,5E0,1E0,1E1,1.1E1,1E1,3.3E1,6E0,1.9E1,4E0,2.6E1,5E0,1E0,4E0,5E0,7E0,3E0,3E0,2E0,1E0,2E0,1.9E1,1E0,1E0,1.51E2,1E0,1E0,1E0,2.6E1,1E0,1E0,3.2E1],"tree_param":{"num_deleted":"0","num_feature":"13","num_nodes":"159","size_leaf_vector":"1"}},{"base_weights":[8.2448043E-4,-5.386868E-2,2.4908209E-1,-7.888128E-2,-1.23352455E-2,1.6430482E-1,3.190189E-1,-3.9533526E-3,-2.5545508E-2,-1.8939257E-2,5.5484917E-2,1.4278345E-1,2.2860116E-1,3.0077034E-1,4.026661E-1,-2.3954015E-3,-1.8260855E-3,-2.45993E-2,1.6229209E-2,8.0014996E-2,-5.56216E-3,1.7548473E-1,1.1605958E-1,4.7205355E-2,2.3895496E-1,5.9101656E-2,3.0398726E-1,4.105705E-1,8.152604E-3,-1.8286817E-4,3.2130629E-6,4.294387E-2,-2.716456E-2,-3.0662331E-3,5.0617393E-2,1.5534209E-1,6.621262E-2,4.7935355E-2,-4.2171042E-2,9.223554E-2,1.9464996E-1,6.470134E-2,1.470031E-1,3.217071E-3,1.0023097E-3,2.421723E-1,2.1934886E-3,-3.7343297E-4,4.1890657E-3,2.8909308E-1,3.5723957E-1,8.279785E-3,4.1910613E-1,6.511244E-2,-6.761264E-3,-3.0744867E-2,4.1681794E-3,-7.7036098E-3,3.4789832E-3,2.647944E-2,6.47743E-2,1.079763E-2,5.5896055E-2,5.3140014E-2,1.2771921E-1,8.927278E-3,4.7231815E-3,1.725625E-2,-5.4544758E-2,1.7451026E-1,3.364716E-2,7.8219905E-2,2.0705716E-1,4.573448E-2,1.0250132E-2,1.6815211E-1,7.154519E-2,2.006549E-1,2.7677068E-1,2.9312086E-1,1.321601E-1,2.2102758E-2,2.4608047E-1,5.6454814E-3,4.243301E-1,5.489621E-3,9.0810977E-4,-8.922128E-4,1.770492E-3,-2.0115392E-3,-7.6393073E-4,-8.777156E-4,4.36978E-3,1.4122648E-3,-7.58002E-4,1.3894009E-3,2.0398274E-4,4.9517932E-3,2.2868235E-3,3.4933225E-3,3.4962184E-4,4.3669846E-3,8.9966616E-4,-8.1902306E-4,9.431759E-3,-1.2530399E-3,1.0368527E-3,-1.0269497E-3,2.3211685E-3,-2.8402766E-3,-7.9842546E-4,9.733609E-3,1.8425145E-3,3.631028E-3,-9.925178E-4,5.6134216E-3,-2.3004648E-4,1.1090105E-2,5.0960504E-3,4.600227E-3,-7.9616153E-4,1.516078E-3,8.886568E-3,5.5473456E-3,2.5920323E-5,5.882479E-3,1.1319933E-2,3.4297146E-3,1.4155767E-2,1.7352313E-3,1.472552E-2,1.01978285E-2,2.263636E-3,2.2106126E-3,1.33027015E-2,2.1481967E-2,5.829964E-3],"categories":[],"categories_nodes":[],"categories_segments":[],"categories_sizes":[],"default_left":[0,0,0,0,0,0,0,0,0,0,0,0,0,0,0,0,0,0,0,0,0,0,0,0,0,0,0,0,0,0,0,0,0,0,0,0,0,0,0,0,0,0,0,0,0,0,0,0,0,0,0,0,0,0,0,0,0,0,0,0,0,0,0,0,0,0,0,0,0,0,0,0,0,0,0,0,0,0,0,0,0,0,0,0,0,0,0,0,0,0,0,0,0,0,0,0,0,0,0,0,0,0,0,0,0,0,0,0,0,0,0,0,0,0,0,0,0,0,0,0,0,0,0,0,0,0,0,0,0,0,0,0,0,0,0,0,0],"id":10,"left_children":[1,3,5,7,9,11,13,-1,15,17,19,21,23,25,27,29,-1,31,33,35,37,39,41,43,45,47,49,51,-1,-1,-1,53,55,57,59,61,63,65,67,69,71,73,75,-1,-1,77,-1,-1,-1,79,81,-1,83,85,87,89,91,93,-1,95,97,-1,99,101,103,105,-1,107,109,111,113,115,117,119,-1,121,123,125,127,129,131,-1,133,-1,135,-1,-1,-1,-1,-1,-1,-1,-1,-1,-1,-1,-1,-1,-1,-1,-1,-1,-1,-1,-1,-1,-1,-1,-1,-1,-1,-1,-1,-1,-1,-1,-1,-1,-1,-1,-1,-1,-1,-1,-1,-1,-1,-1,-1,-1,-1,-1,-1,-1,-1,-1,-1],"loss_changes":[3.4596565E1,2.1681647E0,2.6749496E0,1.0890961E-2,3.5308856E-1,2.57946E-1,2.6202774E-1,0E0,1.4371169E-3,1.4312175E-1,1.0526934E-1,1.1945772E-1,8.4504604E-2,1.4529228E-1,1.2604237E-2,9.547028E-6,0E0,1.0824469E-1,6.6508725E-2,4.1699022E-2,4.3149658E-2,9.373069E-2,1.351062E-1,5.718041E-4,1.9503355E-2,7.197463E-3,6.0907364E-2,1.4238358E-2,0E0,0E0,0E0,2.5783759E-2,6.698796E-2,2.2433631E-2,1.0586686E-2,3.0121416E-2,2.859126E-2,1.5491508E-2,1.0500608E-2,6.643337E-2,6.470013E-2,8.642304E-2,7.733762E-2,0E0,0E0,1.1977196E-2,0E0,0E0,0E0,6.6820145E-2,2.7776814E-1,0E0,1.2872219E-2,3.1569704E-2,4.370918E-3,7.787597E-2,1.13624394E-1,1.704733E-2,0E0,3.26314E-4,9.820297E-3,0E0,2.2442741E-3,4.4104666E-2,6.453572E-2,2.9280365E-3,0E0,4.2606243E-3,5.2232295E-5,9.47921E-3,2.2291347E-2,2.0256031E-2,5.4904938E-2,9.561092E-2,0E0,5.138445E-2,3.912256E-2,2.678597E-2,1.0958314E-2,4.794979E-2,2.8195575E-2,0E0,6.8877816E-2,0E0,1.0354996E-2,0E0,0E0,0E0,0E0,0E0,0E0,0E0,0E0,0E0,0E0,0E0,0E0,0E0,0E0,0E0,0E0,0E0,0E0,0E0,0E0,0E0,0E0,0E0,0E0,0E0,0E0,0E0,0E0,0E0,0E0,0E0,0E0,0E0,0E0,0E0,0E0,0E0,0E0,0E0,0E0,0E0,0E0,0E0,0E0,0E0,0E0,0E0,0E0,0E0,0E0,0E0,0E0],"parents":[2147483647,0,0,1,1,2,2,3,3,4,4,5,5,6,6,8,8,9,9,10,10,11,11,12,12,13,13,14,14,15,15,17,17,18,18,19,19,20,20,21,21,22,22,23,23,24,24,25,25,26,26,27,27,31,31,32,32,33,33,34,34,35,35,36,36,37,37,38,38,39,39,40,40,41,41,42,42,45,45,49,49,50,50,52,52,53,53,54,54,55,55,56,56,57,57,59,59,60,60,62,62,63,63,64,64,65,65,67,67,68,68,69,69,70,70,71,71,72,72,73,73,75,75,76,76,77,77,78,78,79,79,80,80,82,82,84,84],"right_children":[2,4,6,8,10,12,14,-1,16,18,20,22,24,26,28,30,-1,32,34,36,38,40,42,44,46,48,50,52,-1,-1,-1,54,56,58,60,62,64,66,68,70,72,74,76,-1,-1,78,-1,-1,-1,80,82,-1,84,86,88,90,92,94,-1,96,98,-1,100,102,104,106,-1,108,110,112,114,116,118,120,-1,122,124,126,128,130,132,-1,134,-1,136,-1,-1,-1,-1,-1,-1,-1,-1,-1,-1,-1,-1,-1,-1,-1,-1,-1,-1,-1,-1,-1,-1,-1,-1,-1,-1,-1,-1,-1,-1,-1,-1,-1,-1,-1,-1,-1,-1,-1,-1,-1,-1,-1,-1,-1,-1,-1,-1,-1,-1,-1,-1],"split_conditions":[3.2787722E-1,8.817695E-2,5.598624E-1,3.6974248E-1,2.513814E-1,4.1492537E-1,7.4412495E-1,-3.9533526E-3,6.315789E-1,4.152312E-1,2.3028105E-1,4.464286E-3,3.3246085E-1,1.9402985E-1,2.1849501E-1,5.1012146E-1,-1.8260855E-3,1.7497733E-1,4.119403E-1,4.3E-1,5.952381E-3,3.7468353E-1,3.731983E-1,2.0489573E-1,9.182787E-1,1.6119403E-1,4.5279208E-1,6.6E-1,8.152604E-3,-1.8286817E-4,3.2130629E-6,5.098621E-1,1.7871739E-1,1.4263591E-1,4.3773657E-1,9.1047925E-1,9.8E-1,4.0192664E-1,7.725E-1,9.317216E-1,2.5373134E-1,6.492079E-1,4.4357917E-1,3.217071E-3,1.0023097E-3,5.263251E-1,2.1934886E-3,-3.7343297E-4,4.1890657E-3,9.592789E-1,5.073832E-1,8.279785E-3,4.44243E-2,5.6292975E-1,4.5051083E-1,3.6119404E-1,4.2859954E-1,8.7040186E-1,3.4789832E-3,5.2492046E-1,4.6234834E-1,1.079763E-2,3.375E-1,4.9416754E-1,7.4404763E-4,3.562753E-1,4.7231815E-3,5.7894737E-1,7.2469634E-1,6.372722E-1,5.3128314E-1,3.5617685E-1,4.6371236E-1,5.4065174E-1,1.0250132E-2,1.1641791E-1,5.681818E-1,3.9741528E-1,3.8366914E-1,1.7538702E-2,1.2692657E-1,2.2102758E-2,4.19088E-1,5.6454814E-3,7.121212E-1,5.489621E-3,9.0810977E-4,-8.922128E-4,1.770492E-3,-2.0115392E-3,-7.6393073E-4,-8.777156E-4,4.36978E-3,1.4122648E-3,-7.58002E-4,1.3894009E-3,2.0398274E-4,4.9517932E-3,2.2868235E-3,3.4933225E-3,3.4962184E-4,4.3669846E-3,8.9966616E-4,-8.1902306E-4,9.431759E-3,-1.2530399E-3,1.0368527E-3,-1.0269497E-3,2.3211685E-3,-2.8402766E-3,-7.9842546E-4,9.733609E-3,1.8425145E-3,3.631028E-3,-9.925178E-4,5.6134216E-3,-2.3004648E-4,1.1090105E-2,5.0960504E-3,4.600227E-3,-7.9616153E-4,1.516078E-3,8.886568E-3,5.5473456E-3,2.5920323E-5,5.882479E-3,1.1319933E-2,3.4297146E-3,1.4155767E-2,1.7352313E-3,1.472552E-2,1.01978285E-2,2.263636E-3,2.2106126E-3,1.33027015E-2,2.1481967E-2,5.829964E-3],"split_indices":[11,11,11,10,11,8,11,0,0,1,1,7,12,8,1,0,0,1,8,2,7,11,12,1,9,8,12,2,0,0,0,4,11,11,10,6,2,12,2,6,8,10,12,0,0,11,0,0,0,4,12,0,1,10,12,8,12,6,0,4,10,0,2,4,7,0,0,0,0,3,4,12,12,10,0,8,5,12,4,3,1,0,4,0,5,0,0,0,0,0,0,0,0,0,0,0,0,0,0,0,0,0,0,0,0,0,0,0,0,0,0,0,0,0,0,0,0,0,0,0,0,0,0,0,0,0,0,0,0,0,0,0,0,0,0,0,0],"split_type":[0,0,0,0,0,0,0,0,0,0,0,0,0,0,0,0,0,0,0,0,0,0,0,0,0,0,0,0,0,0,0,0,0,0,0,0,0,0,0,0,0,0,0,0,0,0,0,0,0,0,0,0,0,0,0,0,0,0,0,0,0,0,0,0,0,0,0,0,0,0,0,0,0,0,0,0,0,0,0,0,0,0,0,0,0,0,0,0,0,0,0,0,0,0,0,0,0,0,0,0,0,0,0,0,0,0,0,0,0,0,0,0,0,0,0,0,0,0,0,0,0,0,0,0,0,0,0,0,0,0,0,0,0,0,0,0,0],"sum_hessian":[2.546E3,2.087E3,4.59E2,1.302E3,7.85E2,2.09E2,2.5E2,1.297E3,5E0,7.16E2,6.9E1,1.59E2,5E1,2.09E2,4.1E1,2E0,3E0,6.17E2,9.9E1,4.9E1,2E1,6.9E1,9E1,3E0,4.7E1,3E0,2.06E2,3.9E1,2E0,1E0,1E0,2.2E1,5.95E2,6.4E1,3.5E1,6E0,4.3E1,8E0,1.2E1,1.4E1,5.5E1,3.5E1,5.5E1,1E0,2E0,4.6E1,1E0,1E0,2E0,1.66E2,4E1,2E0,3.7E1,1.5E1,7E0,5.34E2,6.1E1,6.1E1,3E0,1.4E1,2.1E1,3E0,3E0,3.7E1,6E0,5E0,3E0,2E0,1E1,5E0,9E0,6E0,4.9E1,3.2E1,3E0,4.2E1,1.3E1,2.4E1,2.2E1,1.61E2,5E0,2.1E1,1.9E1,1E0,3.6E1,7E0,8E0,6E0,1E0,3.3E2,2.04E2,4.9E1,1.2E1,1E1,5.1E1,1.3E1,1E0,6E0,1.5E1,2E0,1E0,1.8E1,1.9E1,2E0,4E0,1E0,4E0,1E0,1E0,9E0,1E0,4E0,1E0,5E0,4E0,4E0,2E0,4.2E1,7E0,1.8E1,1.4E1,3E0,3.9E1,8E0,5E0,7E0,1.7E1,1E0,2.1E1,1E0,1.6E2,2E0,3E0,2E0,1.7E1,3.5E1,1E0],"tree_param":{"num_deleted":"0","num_feature":"13","num_nodes":"137","size_leaf_vector":"1"}},{"base_weights":[8.9022197E-4,-5.115337E-2,2.3712094E-1,-1.20093785E-2,-3.7581443E-3,1.4082484E-1,2.9256153E-1,-1.8275324E-2,5.3148992E-2,9.952918E-2,1.5720196E-1,2.53744E-1,3.373967E-1,-2.2029856E-2,3.1848975E-2,7.6584645E-2,-5.181076E-3,1.09270446E-1,-1.1944632E-2,1.7515536E-1,8.555674E-2,1.4609967E-1,2.655192E-1,1.2439424E-1,3.430812E-1,4.1113026E-2,-2.4216793E-2,-2.1843072E-2,4.0887322E-2,1.4966649E-1,6.3217424E-2,4.603937E-2,-4.024284E-2,7.105826E-2,1.4605454E-1,3.4026303E-3,-4.8957095E-2,1.9071063E-1,1.18168846E-1,-2.961706E-2,1.2954798E-1,-1.078823E-2,1.7819647E-1,2.7080864E-1,9.96096E-2,1.6210733E-3,8.745113E-3,2.5659028E-1,3.586115E-1,7.4607553E-3,2.9416792E-2,-2.8038787E-2,3.5565025E-3,-3.2107167E-2,-3.5521872E-3,-1.45045E-3,4.490641E-2,1.0392718E-2,5.4061987E-2,-3.6075093E-2,6.880457E-2,7.460771E-2,-8.322984E-3,1.6824843E-2,-2.6074157E-3,2.4040546E-2,1.19990736E-1,1.5840124E-1,-3.1393194E-3,-2.892126E-3,-5.5752025E-4,5.1907353E-2,1.9800492E-1,-2.5819046E-2,1.5959987E-1,1.6303733E-3,-5.5793148E-2,5.6701478E-2,1.1131212E-2,1.3118781E-3,-3.1876016E-2,3.7572544E-2,2.2591676E-1,2.7627617E-1,5.2238177E-3,-2.5017324E-3,1.3954538E-1,2.6865998E-1,-2.2357107E-4,3.6134437E-1,1.7915488E-3,2.130595E-3,-1.1984479E-3,-1.5764462E-3,4.6191152E-4,-9.90122E-4,1.960687E-3,-4.7635124E-4,-2.199246E-3,9.074062E-6,-2.4286185E-4,1.6519713E-3,3.441871E-3,3.3768786E-3,3.408812E-4,-2.0898358E-4,-2.4966483E-3,2.4894713E-3,5.609666E-3,4.4282987E-3,1.2040995E-4,9.124454E-4,-1.1631626E-3,-1.001276E-3,2.2631392E-3,2.4669135E-3,-8.9564E-4,9.368821E-3,3.1437927E-3,1.025357E-2,4.6544117E-3,-5.2946243E-3,5.891522E-3,1.11101335E-2,6.997423E-3,-3.4174023E-3,6.266231E-4,9.495724E-3,3.010068E-4,-7.7415927E-4,-3.037925E-3,4.94103E-3,6.249582E-4,-2.0266043E-3,-3.6409704E-4,5.5821316E-4,2.5728324E-3,1.2086555E-2,1.6943328E-3,1.2964477E-2,1.7726226E-2,2.030243E-3,7.7064647E-3,1.3867735E-2,2.1517805E-3,1.8195242E-2,2.3763457E-3],"categories":[],"categories_nodes":[],"categories_segments":[],"categories_sizes":[],"default_left":[0,0,0,0,0,0,0,0,0,0,0,0,0,0,0,0,0,0,0,0,0,0,0,0,0,0,0,0,0,0,0,0,0,0,0,0,0,0,0,0,0,0,0,0,0,0,0,0,0,0,0,0,0,0,0,0,0,0,0,0,0,0,0,0,0,0,0,0,0,0,0,0,0,0,0,0,0,0,0,0,0,0,0,0,0,0,0,0,0,0,0,0,0,0,0,0,0,0,0,0,0,0,0,0,0,0,0,0,0,0,0,0,0,0,0,0,0,0,0,0,0,0,0,0,0,0,0,0,0,0,0,0,0,0,0,0,0,0,0,0,0,0,0,0,0,0,0],"id":11,"left_children":[1,3,5,7,-1,9,11,13,15,17,19,21,23,25,27,29,31,33,35,37,39,41,43,45,47,49,51,53,55,57,59,61,63,65,67,-1,69,71,73,75,77,79,81,83,85,-1,-1,87,89,-1,91,93,95,97,99,-1,101,-1,103,105,107,109,111,113,-1,115,117,119,-1,-1,-1,121,123,125,127,-1,129,131,-1,-1,133,135,137,139,-1,-1,141,143,-1,145,-1,-1,-1,-1,-1,-1,-1,-1,-1,-1,-1,-1,-1,-1,-1,-1,-1,-1,-1,-1,-1,-1,-1,-1,-1,-1,-1,-1,-1,-1,-1,-1,-1,-1,-1,-1,-1,-1,-1,-1,-1,-1,-1,-1,-1,-1,-1,-1,-1,-1,-1,-1,-1,-1,-1,-1,-1],"loss_changes":[3.1325699E1,1.9614592E0,2.41461E0,3.2555297E-1,0E0,9.932542E-2,4.2084122E-1,1.3732998E-1,9.6086994E-2,5.6685925E-2,1.3936734E-1,1.6401386E-1,1.1714935E-1,9.434411E-2,2.5642771E-2,3.93835E-2,3.9566215E-2,5.5684865E-2,1.813613E-2,6.1675787E-2,1.3556947E-1,9.256321E-2,9.8516464E-2,1.755622E-2,7.991791E-2,2.4691481E-2,6.952143E-2,1.3878641E-3,1.3663143E-2,2.770415E-2,2.6891664E-2,1.4598338E-2,9.709818E-3,5.463268E-2,6.925082E-2,0E0,6.987471E-4,6.363249E-2,1.4132875E-1,1.4849629E-2,1.16202176E-1,3.959517E-3,9.217098E-2,9.663677E-2,4.2839065E-2,0E0,0E0,7.367277E-2,8.055496E-2,0E0,1.6518839E-2,7.5099856E-2,6.7409754E-2,9.219614E-4,2.0371994E-5,0E0,9.653196E-3,0E0,2.0861346E-3,1.1173047E-3,2.9065758E-2,5.833395E-3,2.0124936E-3,4.050256E-3,0E0,1.5742324E-2,3.4403265E-2,4.7969997E-2,0E0,0E0,0E0,6.449062E-2,6.583643E-2,1.0642875E-2,8.265945E-2,0E0,2.6018545E-4,2.1105975E-2,0E0,0E0,3.4351135E-4,1.2588012E-3,2.5213659E-2,8.485603E-2,0E0,0E0,9.563044E-4,3.1221986E-2,0E0,6.7074776E-2,0E0,0E0,0E0,0E0,0E0,0E0,0E0,0E0,0E0,0E0,0E0,0E0,0E0,0E0,0E0,0E0,0E0,0E0,0E0,0E0,0E0,0E0,0E0,0E0,0E0,0E0,0E0,0E0,0E0,0E0,0E0,0E0,0E0,0E0,0E0,0E0,0E0,0E0,0E0,0E0,0E0,0E0,0E0,0E0,0E0,0E0,0E0,0E0,0E0,0E0,0E0,0E0,0E0,0E0,0E0,0E0,0E0],"parents":[2147483647,0,0,1,1,2,2,3,3,5,5,6,6,7,7,8,8,9,9,10,10,11,11,12,12,13,13,14,14,15,15,16,16,17,17,18,18,19,19,20,20,21,21,22,22,23,23,24,24,25,25,26,26,27,27,28,28,29,29,30,30,31,31,32,32,33,33,34,34,36,36,37,37,38,38,39,39,40,40,41,41,42,42,43,43,44,44,47,47,48,48,50,50,51,51,52,52,53,53,54,54,56,56,58,58,59,59,60,60,61,61,62,62,63,63,65,65,66,66,67,67,71,71,72,72,73,73,74,74,76,76,77,77,80,80,81,81,82,82,83,83,86,86,87,87,89,89],"right_children":[2,4,6,8,-1,10,12,14,16,18,20,22,24,26,28,30,32,34,36,38,40,42,44,46,48,50,52,54,56,58,60,62,64,66,68,-1,70,72,74,76,78,80,82,84,86,-1,-1,88,90,-1,92,94,96,98,100,-1,102,-1,104,106,108,110,112,114,-1,116,118,120,-1,-1,-1,122,124,126,128,-1,130,132,-1,-1,134,136,138,140,-1,-1,142,144,-1,146,-1,-1,-1,-1,-1,-1,-1,-1,-1,-1,-1,-1,-1,-1,-1,-1,-1,-1,-1,-1,-1,-1,-1,-1,-1,-1,-1,-1,-1,-1,-1,-1,-1,-1,-1,-1,-1,-1,-1,-1,-1,-1,-1,-1,-1,-1,-1,-1,-1,-1,-1,-1,-1,-1,-1,-1,-1],"split_conditions":[3.2787722E-1,5.385313E-1,5.263251E-1,2.513814E-1,-3.7581443E-3,2.6567164E-1,6.6192216E-1,4.4786945E-1,2.3028105E-1,2.5671643E-1,9.472416E-1,3.4925374E-1,4.5074627E-1,1.7497733E-1,2.925373E-1,4.3E-1,5.952381E-3,7.497039E-1,3.1578946E-1,3.9434522E-2,7.974734E-1,3.1800002E-1,6.328358E-1,2.9188713E-1,7.925E-1,2.861062E-2,4.358209E-1,5.8299595E-1,1.1363637E-1,9.1047925E-1,1.4925373E-1,2.80597E-1,7.725E-1,1.5231188E-1,7.7412516E-1,3.4026303E-3,4.6153846E-1,4.6861428E-1,4.5386903E-2,4.7368422E-1,3.6437246E-1,4.0890688E-1,6.3584304E-1,5.419901E-1,1.2148686E-1,1.6210733E-3,8.745113E-3,5.235477E-1,7.4898785E-1,7.4607553E-3,8.1101194E-2,1.7871739E-1,3.5358113E-1,7.112483E-1,6.032389E-1,-1.45045E-3,4.8656717E-1,1.0392718E-2,3.375E-1,4.4534412E-1,6.4777327E-1,7.19697E-1,2.9374433E-1,5.7894737E-1,-2.6074157E-3,1.2148686E-1,4.7115272E-1,9.2763907E-1,-3.1393194E-3,-2.892126E-3,-5.5752025E-4,4.7368422E-1,4.4357917E-1,8.275E-1,9.9E-1,1.6303733E-3,1.7860381E-1,6.969697E-1,1.1131212E-2,1.3118781E-3,6.315789E-1,5.8704454E-1,3.3731344E-1,4.4782007E-1,5.2238177E-3,-2.5017324E-3,3.9006785E-1,2.3028105E-1,-2.2357107E-4,1.2872024E-1,1.7915488E-3,2.130595E-3,-1.1984479E-3,-1.5764462E-3,4.6191152E-4,-9.90122E-4,1.960687E-3,-4.7635124E-4,-2.199246E-3,9.074062E-6,-2.4286185E-4,1.6519713E-3,3.441871E-3,3.3768786E-3,3.408812E-4,-2.0898358E-4,-2.4966483E-3,2.4894713E-3,5.609666E-3,4.4282987E-3,1.2040995E-4,9.124454E-4,-1.1631626E-3,-1.001276E-3,2.2631392E-3,2.4669135E-3,-8.9564E-4,9.368821E-3,3.1437927E-3,1.025357E-2,4.6544117E-3,-5.2946243E-3,5.891522E-3,1.11101335E-2,6.997423E-3,-3.4174023E-3,6.266231E-4,9.495724E-3,3.010068E-4,-7.7415927E-4,-3.037925E-3,4.94103E-3,6.249582E-4,-2.0266043E-3,-3.6409704E-4,5.5821316E-4,2.5728324E-3,1.2086555E-2,1.6943328E-3,1.2964477E-2,1.7726226E-2,2.030243E-3,7.7064647E-3,1.3867735E-2,2.1517805E-3,1.8195242E-2,2.3763457E-3],"split_indices":[11,1,11,11,0,8,11,1,1,8,6,8,8,1,8,2,7,9,0,7,9,12,8,3,2,3,8,0,5,6,8,8,2,1,4,0,0,9,7,0,0,0,4,12,1,0,0,12,0,0,7,11,1,3,0,0,8,0,2,0,0,5,1,0,0,1,10,6,0,0,0,0,12,2,2,0,1,5,0,0,0,0,8,12,0,0,12,1,0,7,0,0,0,0,0,0,0,0,0,0,0,0,0,0,0,0,0,0,0,0,0,0,0,0,0,0,0,0,0,0,0,0,0,0,0,0,0,0,0,0,0,0,0,0,0,0,0,0,0,0,0,0,0,0,0,0,0],"split_type":[0,0,0,0,0,0,0,0,0,0,0,0,0,0,0,0,0,0,0,0,0,0,0,0,0,0,0,0,0,0,0,0,0,0,0,0,0,0,0,0,0,0,0,0,0,0,0,0,0,0,0,0,0,0,0,0,0,0,0,0,0,0,0,0,0,0,0,0,0,0,0,0,0,0,0,0,0,0,0,0,0,0,0,0,0,0,0,0,0,0,0,0,0,0,0,0,0,0,0,0,0,0,0,0,0,0,0,0,0,0,0,0,0,0,0,0,0,0,0,0,0,0,0,0,0,0,0,0,0,0,0,0,0,0,0,0,0,0,0,0,0,0,0,0,0,0,0],"sum_hessian":[2.546E3,2.087E3,4.59E2,7.94E2,1.293E3,1.69E2,2.9E2,7.25E2,6.9E1,5E1,1.19E2,1.59E2,1.31E2,6.75E2,5E1,4.9E1,2E1,4.6E1,4E0,9.4E1,2.5E1,1.7E1,1.42E2,4E0,1.27E2,2.2E1,6.53E2,7E0,4.3E1,6E0,4.3E1,8E0,1.2E1,2.4E1,2.2E1,1E0,3E0,7.2E1,2.2E1,7E0,1.8E1,3E0,1.4E1,1.37E2,5E0,2E0,2E0,2.2E1,1.05E2,1E0,2.1E1,5.74E2,7.9E1,4E0,3E0,2E0,4.1E1,3E0,3E0,2E0,4.1E1,5E0,3E0,2E0,1E1,1.3E1,1.1E1,2.1E1,1E0,2E0,1E0,4E0,6.8E1,5E0,1.7E1,2E0,5E0,1.1E1,7E0,1E0,2E0,4E0,1E1,1.32E2,5E0,1E0,4E0,2.1E1,1E0,1.04E2,1E0,1.7E1,4E0,5.25E2,4.9E1,4.8E1,3.1E1,2E0,2E0,1E0,2E0,2.9E1,1.2E1,2E0,1E0,1E0,1E0,3E1,1.1E1,4E0,1E0,1E0,2E0,1E0,1E0,8E0,5E0,4E0,7E0,1.1E1,1E1,1E0,3E0,4.6E1,2.2E1,2E0,3E0,1.4E1,3E0,1E0,4E0,5E0,6E0,1E0,1E0,2E0,2E0,9E0,1E0,1.12E2,2E1,1E0,3E0,2E1,1E0,1.03E2,1E0],"tree_param":{"num_deleted":"0","num_feature":"13","num_nodes":"147","size_leaf_vector":"1"}},{"base_weights":[9.2471496E-4,-4.8582442E-2,2.2564214E-1,-7.120339E-2,-1.1020511E-2,1.4554563E-1,2.8615427E-1,-3.5687254E-3,-1.2507762E-2,-1.7041823E-2,5.0812345E-2,1.1010573E-1,1.7354093E-1,2.6313964E-1,3.501651E-1,-8.826082E-4,-9.98183E-4,-2.0707529E-2,2.8348396E-2,7.314549E-2,-4.781431E-3,1.6508128E-1,9.0184815E-2,1.8455124E-1,1.0090659E-2,1.3461502E-1,2.7079007E-1,1.884974E-1,3.790714E-1,-3.681263E-4,3.0193068E-4,1.2221147E-3,-2.6048496E-2,-6.8320637E-3,6.3781895E-2,1.4419894E-1,6.017913E-2,4.4214956E-2,-3.8334202E-2,2.0897311E-1,9.820172E-2,6.7546025E-2,1.4620551E-1,1.888057E-2,1.910543E-1,3.849054E-2,-2.7931856E-2,3.6320128E-2,1.7426606E-1,2.4385634E-1,2.9929104E-1,2.0642617E-1,-2.1798164E-4,2.125362E-2,3.019421E-1,-2.0143567E-2,3.7388023E-2,-3.7372664E-2,-5.8468725E-3,-2.3454001E-2,1.3950208E-1,7.61505E-2,2.4887651E-2,3.0671725E-2,9.173775E-3,4.78251E-2,1.1864684E-1,7.922412E-3,4.3800017E-3,1.640422E-2,-4.9777936E-2,4.152606E-2,1.1782147E-2,1.1653081E-3,7.6742317E-3,4.8873454E-2,1.492543E-1,1.9583711E-1,5.348244E-2,-4.049304E-2,6.4093755E-3,9.429662E-2,2.0458399E-1,2.4425532E-3,7.6499186E-4,-1.820471E-3,-6.247908E-5,5.396061E-4,2.4870716E-3,2.1707687E-1,1.6285472E-2,2.4902064E-1,-6.129369E-3,3.0837652E-1,1.9107824E-3,2.974078E-3,1.0758624E-2,1.5052724E-1,3.3386564E-1,-2.512142E-3,1.9900966E-4,1.5048555E-5,4.341155E-3,-2.033216E-3,1.8548223E-3,-1.5947967E-3,1.7421192E-4,1.0872673E-3,-1.7625623E-3,1.7880049E-3,8.674651E-3,5.2546645E-3,2.1458052E-3,1.3793326E-3,1.498662E-4,1.9680203E-3,3.3235922E-4,-1.2918075E-3,3.1221982E-3,-9.2670805E-4,8.861303E-3,-1.1926349E-3,9.523987E-4,-9.76244E-4,2.2065607E-3,-1.2771491E-3,-2.7836587E-3,4.7814773E-4,2.6363067E-3,-9.849616E-4,1.0820706E-3,-1.1493939E-3,3.174252E-3,1.0954662E-2,3.5911743E-4,1.107392E-2,4.4592484E-3,5.069708E-3,-9.888912E-4,5.852889E-4,-3.0897288E-3,-1.1377087E-3,7.169618E-3,4.27309E-3,1.0869874E-2,1.2112159E-2,1.6519747E-3,-3.5499464E-4,1.576405E-3,1.09930625E-2,1.4290261E-2,1.9794868E-3,-2.4391895E-3,1.5788713E-2,6.564823E-3,2.074346E-3,8.201896E-3,4.517272E-3,1.7118769E-2],"categories":[],"categories_nodes":[],"categories_segments":[],"categories_sizes":[],"default_left":[0,0,0,0,0,0,0,0,0,0,0,0,0,0,0,0,0,0,0,0,0,0,0,0,0,0,0,0,0,0,0,0,0,0,0,0,0,0,0,0,0,0,0,0,0,0,0,0,0,0,0,0,0,0,0,0,0,0,0,0,0,0,0,0,0,0,0,0,0,0,0,0,0,0,0,0,0,0,0,0,0,0,0,0,0,0,0,0,0,0,0,0,0,0,0,0,0,0,0,0,0,0,0,0,0,0,0,0,0,0,0,0,0,0,0,0,0,0,0,0,0,0,0,0,0,0,0,0,0,0,0,0,0,0,0,0,0,0,0,0,0,0,0,0,0,0,0,0,0,0,0,0,0,0,0,0,0,0,0],"id":12,"left_children":[1,3,5,7,9,11,13,-1,15,17,19,21,23,25,27,29,-1,31,33,35,37,39,41,43,45,47,49,51,53,-1,-1,55,57,59,61,63,65,67,69,71,73,75,77,79,81,83,85,87,89,91,93,95,-1,-1,97,99,101,103,105,107,109,111,113,115,-1,117,119,121,-1,123,125,127,-1,129,-1,131,133,135,137,139,-1,141,143,-1,-1,-1,-1,-1,-1,145,147,149,151,153,-1,-1,-1,155,157,-1,-1,-1,-1,-1,-1,-1,-1,-1,-1,-1,-1,-1,-1,-1,-1,-1,-1,-1,-1,-1,-1,-1,-1,-1,-1,-1,-1,-1,-1,-1,-1,-1,-1,-1,-1,-1,-1,-1,-1,-1,-1,-1,-1,-1,-1,-1,-1,-1,-1,-1,-1,-1,-1,-1,-1,-1,-1,-1,-1],"loss_changes":[2.8346645E1,1.7733607E0,2.1878853E0,1.219368E-2,2.9350543E-1,1.7932224E-1,2.923603E-1,0E0,4.1575998E-4,1.198867E-1,8.726059E-2,8.477211E-2,1.9609785E-1,1.5626717E-1,2.3697758E-1,1.790063E-4,0E0,7.7803165E-2,6.775037E-2,3.738746E-2,3.62182E-2,4.699421E-2,7.763302E-2,1.07361555E-1,9.713792E-3,4.4338077E-2,6.826115E-2,4.2392284E-2,6.679392E-2,0E0,0E0,1.0197803E-1,1.2194282E-1,7.137788E-2,1.1093609E-2,2.558519E-2,2.6107416E-2,1.3476988E-2,8.959925E-3,4.8269868E-2,5.883015E-2,7.051635E-2,7.696405E-2,3.764044E-2,1.1030936E-1,4.539257E-4,8.593062E-4,1.1762786E-3,5.7334304E-2,1.306262E-1,1.8983507E-1,1.3386607E-3,0E0,0E0,6.575298E-2,6.046692E-2,8.981051E-2,8.53419E-2,4.7023E-2,1.4630471E-2,4.374739E-3,1.4727734E-2,3.8997037E-4,3.6458857E-4,0E0,4.2533375E-2,5.953645E-2,2.5754413E-3,0E0,3.8502738E-3,1.4951825E-4,5.697501E-4,0E0,2.5624419E-3,0E0,4.660973E-2,8.772577E-2,1.3063818E-2,3.0085558E-2,5.1710126E-3,0E0,8.37165E-2,1.1268854E-1,0E0,0E0,0E0,0E0,0E0,0E0,2.4417222E-2,1.2932094E-3,4.2279243E-2,7.781702E-3,6.595993E-2,0E0,0E0,0E0,2.0338297E-3,8.44121E-3,0E0,0E0,0E0,0E0,0E0,0E0,0E0,0E0,0E0,0E0,0E0,0E0,0E0,0E0,0E0,0E0,0E0,0E0,0E0,0E0,0E0,0E0,0E0,0E0,0E0,0E0,0E0,0E0,0E0,0E0,0E0,0E0,0E0,0E0,0E0,0E0,0E0,0E0,0E0,0E0,0E0,0E0,0E0,0E0,0E0,0E0,0E0,0E0,0E0,0E0,0E0,0E0,0E0,0E0,0E0,0E0,0E0,0E0,0E0,0E0],"parents":[2147483647,0,0,1,1,2,2,3,3,4,4,5,5,6,6,8,8,9,9,10,10,11,11,12,12,13,13,14,14,15,15,17,17,18,18,19,19,20,20,21,21,22,22,23,23,24,24,25,25,26,26,27,27,28,28,31,31,32,32,33,33,34,34,35,35,36,36,37,37,38,38,39,39,40,40,41,41,42,42,43,43,44,44,45,45,46,46,47,47,48,48,49,49,50,50,51,51,54,54,55,55,56,56,57,57,58,58,59,59,60,60,61,61,62,62,63,63,65,65,66,66,67,67,69,69,70,70,71,71,73,73,75,75,76,76,77,77,78,78,79,79,81,81,82,82,89,89,90,90,91,91,92,92,93,93,97,97,98,98],"right_children":[2,4,6,8,10,12,14,-1,16,18,20,22,24,26,28,30,-1,32,34,36,38,40,42,44,46,48,50,52,54,-1,-1,56,58,60,62,64,66,68,70,72,74,76,78,80,82,84,86,88,90,92,94,96,-1,-1,98,100,102,104,106,108,110,112,114,116,-1,118,120,122,-1,124,126,128,-1,130,-1,132,134,136,138,140,-1,142,144,-1,-1,-1,-1,-1,-1,146,148,150,152,154,-1,-1,-1,156,158,-1,-1,-1,-1,-1,-1,-1,-1,-1,-1,-1,-1,-1,-1,-1,-1,-1,-1,-1,-1,-1,-1,-1,-1,-1,-1,-1,-1,-1,-1,-1,-1,-1,-1,-1,-1,-1,-1,-1,-1,-1,-1,-1,-1,-1,-1,-1,-1,-1,-1,-1,-1,-1,-1,-1,-1,-1,-1,-1,-1],"split_conditions":[3.2787722E-1,3.5138553E-1,5.5034083E-1,9.6519604E-2,2.513814E-1,4.253602E-1,4.5279208E-1,-3.5687254E-3,7.651822E-1,4.7462687E-1,2.3028105E-1,7.6270837E-1,8.7053575E-2,3.4925374E-1,5.1177096E-1,7.004049E-1,-9.98183E-4,2.529465E-1,3.6899364E-1,4.3E-1,5.952381E-3,4.7115272E-1,7.8326476E-1,2.98294E-1,5.819724E-1,6.3584304E-1,6.6192216E-1,5.419901E-1,5.112151E-1,-3.681263E-4,3.0193068E-4,3.8407502E-1,3.7443337E-1,7.121212E-1,3.8407502E-1,3.7246963E-1,9.8E-1,4.0192664E-1,7.725E-1,7.524932E-2,1.9126004E-1,2.1486855E-1,9.5530826E-1,6.8861455E-1,2.6567164E-1,1.00634634E-1,1.9401632E-1,5.8704454E-1,7.4493927E-1,6.447761E-1,9.592789E-1,3.946978E-1,-2.1798164E-4,2.125362E-2,5.761194E-1,6.5909094E-1,2.3283581E-1,6.969697E-1,2.9850745E-1,4.8358208E-1,2.7935222E-1,8.938715E-1,4.2683917E-1,3.117409E-1,9.173775E-3,4.2140412E-1,7.4404763E-4,3.562753E-1,4.3800017E-3,5.7894737E-1,4.090909E-1,6.882591E-1,1.1782147E-2,7.2469634E-1,7.6742317E-3,4.6914104E-1,9.317216E-1,2.3028105E-1,1.7860381E-1,2.4696356E-1,6.4093755E-3,4.6835315E-1,4.761153E-1,2.4425532E-3,7.6499186E-4,-1.820471E-3,-6.247908E-5,5.396061E-4,2.4870716E-3,3.3731344E-1,8.5020244E-1,4.464286E-3,5.465587E-1,4.464286E-2,1.9107824E-3,2.974078E-3,1.0758624E-2,3.250049E-1,3.2388663E-1,-2.512142E-3,1.9900966E-4,1.5048555E-5,4.341155E-3,-2.033216E-3,1.8548223E-3,-1.5947967E-3,1.7421192E-4,1.0872673E-3,-1.7625623E-3,1.7880049E-3,8.674651E-3,5.2546645E-3,2.1458052E-3,1.3793326E-3,1.498662E-4,1.9680203E-3,3.3235922E-4,-1.2918075E-3,3.1221982E-3,-9.2670805E-4,8.861303E-3,-1.1926349E-3,9.523987E-4,-9.76244E-4,2.2065607E-3,-1.2771491E-3,-2.7836587E-3,4.7814773E-4,2.6363067E-3,-9.849616E-4,1.0820706E-3,-1.1493939E-3,3.174252E-3,1.0954662E-2,3.5911743E-4,1.107392E-2,4.4592484E-3,5.069708E-3,-9.888912E-4,5.852889E-4,-3.0897288E-3,-1.1377087E-3,7.169618E-3,4.27309E-3,1.0869874E-2,1.2112159E-2,1.6519747E-3,-3.5499464E-4,1.576405E-3,1.09930625E-2,1.4290261E-2,1.9794868E-3,-2.4391895E-3,1.5788713E-2,6.564823E-3,2.074346E-3,8.201896E-3,4.517272E-3,1.7118769E-2],"split_indices":[11,10,11,11,11,11,12,0,0,8,1,6,7,8,4,0,0,1,1,2,7,10,3,12,4,4,11,12,12,0,0,12,1,5,12,0,2,12,2,1,3,1,6,3,8,1,1,0,0,8,4,4,0,0,8,5,8,5,8,8,0,6,10,0,0,10,7,0,0,0,5,0,0,0,0,4,6,1,1,0,0,11,9,0,0,0,0,0,0,8,0,7,0,7,0,0,0,3,0,0,0,0,0,0,0,0,0,0,0,0,0,0,0,0,0,0,0,0,0,0,0,0,0,0,0,0,0,0,0,0,0,0,0,0,0,0,0,0,0,0,0,0,0,0,0,0,0,0,0,0,0,0,0,0,0,0,0,0,0],"split_type":[0,0,0,0,0,0,0,0,0,0,0,0,0,0,0,0,0,0,0,0,0,0,0,0,0,0,0,0,0,0,0,0,0,0,0,0,0,0,0,0,0,0,0,0,0,0,0,0,0,0,0,0,0,0,0,0,0,0,0,0,0,0,0,0,0,0,0,0,0,0,0,0,0,0,0,0,0,0,0,0,0,0,0,0,0,0,0,0,0,0,0,0,0,0,0,0,0,0,0,0,0,0,0,0,0,0,0,0,0,0,0,0,0,0,0,0,0,0,0,0,0,0,0,0,0,0,0,0,0,0,0,0,0,0,0,0,0,0,0,0,0,0,0,0,0,0,0,0,0,0,0,0,0,0,0,0,0,0,0],"sum_hessian":[2.546E3,2.087E3,4.59E2,1.302E3,7.85E2,1.99E2,2.6E2,1.298E3,4E0,7.16E2,6.9E1,9E1,1.09E2,1.95E2,6.5E1,2E0,2E0,6.63E2,5.3E1,4.9E1,2E1,2.2E1,6.8E1,1.02E2,7E0,1.2E1,1.83E2,1.1E1,5.4E1,1E0,1E0,1.3E2,5.33E2,2.7E1,2.6E1,6E0,4.3E1,8E0,1.2E1,1.2E1,1E1,5E1,1.8E1,4E0,9.8E1,4E0,3E0,4E0,8E0,9.9E1,8.4E1,1E1,1E0,3.1E1,2.3E1,8.2E1,4.8E1,3.41E2,1.92E2,2.5E1,2E0,1.9E1,7E0,2E0,4E0,3.7E1,6E0,5E0,3E0,2E0,1E1,2E0,1E1,4E0,6E0,4.2E1,8E0,1.1E1,7E0,3E0,1E0,1.3E1,8.5E1,2E0,2E0,2E0,1E0,2E0,2E0,6E0,2E0,9.7E1,2E0,8.1E1,3E0,1E0,9E0,5E0,1.8E1,3.6E1,4.6E1,2.8E1,2E1,3.27E2,1.4E1,5E1,1.42E2,5E0,2E1,1E0,1E0,9E0,1E1,6E0,1E0,1E0,1E0,6E0,3.1E1,2E0,4E0,1E0,4E0,1E0,1E0,3E0,7E0,1E0,1E0,2E0,2E0,7E0,3.5E1,5E0,3E0,8E0,3E0,4E0,3E0,1E0,2E0,4E0,9E0,9E0,7.6E1,5E0,1E0,1E0,1E0,5.8E1,3.9E1,1E0,1E0,7.7E1,4E0,1E0,4E0,1E0,1.7E1],"tree_param":{"num_deleted":"0","num_feature":"13","num_nodes":"159","size_leaf_vector":"1"}},{"base_weights":[9.777659E-4,-4.6135563E-2,